{"learner":{"attributes":{"best_iteration":"394","best_score":"0.5825529403549123"},"feature_names":["HOME_TEAM","AWAY_TEAM","HOME_W_PCT","HOME_FGM_RANK","HOME_FG3M_RANK","HOME_PLUS_MINUS_RANK","HOME_REB_RANK","HOME_AST_RANK","HOME_TOV_RANK","HOME_STL_RANK","HOME_BLK_RANK","HOME_PF_RANK","HOME_PTS_RANK","HOME_DivisionRank","HOME_HOME_WINS","HOME_ROAD_WINS","HOME_CurrentHomeStreak","HOME_CurrentRoadStreak","HOME_CurrentStreak","HOME_HighValueInjured","AWAY_W_PCT","AWAY_FGM_RANK","AWAY_FG3M_RANK","AWAY_PLUS_MINUS_RANK","AWAY_REB_RANK","AWAY_AST_RANK","AWAY_TOV_RANK","AWAY_STL_RANK","AWAY_BLK_RANK","AWAY_PF_RANK","AWAY_PTS_RANK","AWAY_DivisionRank","AWAY_HOME_WINS","AWAY_ROAD_WINS","AWAY_CurrentHomeStreak","AWAY_CurrentRoadStreak","AWAY_CurrentStreak","AWAY_HighValueInjured"],"feature_types":["c","c","float","int","int","int","int","int","int","int","int","int","int","int","int","int","int","int","int","int","float","int","int","int","int","int","int","int","int","int","int","int","int","int","int","int","int","int"],"gradient_booster":{"model":{"gbtree_model_param":{"num_parallel_tree":"1","num_trees":"445"},"iteration_indptr":[0,1,2,3,4,5,6,7,8,9,10,11,12,13,14,15,16,17,18,19,20,21,22,23,24,25,26,27,28,29,30,31,32,33,34,35,36,37,38,39,40,41,42,43,44,45,46,47,48,49,50,51,52,53,54,55,56,57,58,59,60,61,62,63,64,65,66,67,68,69,70,71,72,73,74,75,76,77,78,79,80,81,82,83,84,85,86,87,88,89,90,91,92,93,94,95,96,97,98,99,100,101,102,103,104,105,106,107,108,109,110,111,112,113,114,115,116,117,118,119,120,121,122,123,124,125,126,127,128,129,130,131,132,133,134,135,136,137,138,139,140,141,142,143,144,145,146,147,148,149,150,151,152,153,154,155,156,157,158,159,160,161,162,163,164,165,166,167,168,169,170,171,172,173,174,175,176,177,178,179,180,181,182,183,184,185,186,187,188,189,190,191,192,193,194,195,196,197,198,199,200,201,202,203,204,205,206,207,208,209,210,211,212,213,214,215,216,217,218,219,220,221,222,223,224,225,226,227,228,229,230,231,232,233,234,235,236,237,238,239,240,241,242,243,244,245,246,247,248,249,250,251,252,253,254,255,256,257,258,259,260,261,262,263,264,265,266,267,268,269,270,271,272,273,274,275,276,277,278,279,280,281,282,283,284,285,286,287,288,289,290,291,292,293,294,295,296,297,298,299,300,301,302,303,304,305,306,307,308,309,310,311,312,313,314,315,316,317,318,319,320,321,322,323,324,325,326,327,328,329,330,331,332,333,334,335,336,337,338,339,340,341,342,343,344,345,346,347,348,349,350,351,352,353,354,355,356,357,358,359,360,361,362,363,364,365,366,367,368,369,370,371,372,373,374,375,376,377,378,379,380,381,382,383,384,385,386,387,388,389,390,391,392,393,394,395,396,397,398,399,400,401,402,403,404,405,406,407,408,409,410,411,412,413,414,415,416,417,418,419,420,421,422,423,424,425,426,427,428,429,430,431,432,433,434,435,436,437,438,439,440,441,442,443,444,445],"tree_info":[0,0,0,0,0,0,0,0,0,0,0,0,0,0,0,0,0,0,0,0,0,0,0,0,0,0,0,0,0,0,0,0,0,0,0,0,0,0,0,0,0,0,0,0,0,0,0,0,0,0,0,0,0,0,0,0,0,0,0,0,0,0,0,0,0,0,0,0,0,0,0,0,0,0,0,0,0,0,0,0,0,0,0,0,0,0,0,0,0,0,0,0,0,0,0,0,0,0,0,0,0,0,0,0,0,0,0,0,0,0,0,0,0,0,0,0,0,0,0,0,0,0,0,0,0,0,0,0,0,0,0,0,0,0,0,0,0,0,0,0,0,0,0,0,0,0,0,0,0,0,0,0,0,0,0,0,0,0,0,0,0,0,0,0,0,0,0,0,0,0,0,0,0,0,0,0,0,0,0,0,0,0,0,0,0,0,0,0,0,0,0,0,0,0,0,0,0,0,0,0,0,0,0,0,0,0,0,0,0,0,0,0,0,0,0,0,0,0,0,0,0,0,0,0,0,0,0,0,0,0,0,0,0,0,0,0,0,0,0,0,0,0,0,0,0,0,0,0,0,0,0,0,0,0,0,0,0,0,0,0,0,0,0,0,0,0,0,0,0,0,0,0,0,0,0,0,0,0,0,0,0,0,0,0,0,0,0,0,0,0,0,0,0,0,0,0,0,0,0,0,0,0,0,0,0,0,0,0,0,0,0,0,0,0,0,0,0,0,0,0,0,0,0,0,0,0,0,0,0,0,0,0,0,0,0,0,0,0,0,0,0,0,0,0,0,0,0,0,0,0,0,0,0,0,0,0,0,0,0,0,0,0,0,0,0,0,0,0,0,0,0,0,0,0,0,0,0,0,0,0,0,0,0,0,0,0,0,0,0,0,0,0,0,0,0,0,0,0,0,0,0,0,0,0,0,0,0,0,0,0,0,0,0,0,0,0,0,0,0,0,0,0,0,0,0,0,0,0,0,0,0,0,0,0,0,0,0,0,0,0,0,0,0,0,0],"trees":[{"base_weights":[1.040411E-2,-3.826646E-1,5.883753E-1,-7.1767205E-1,4.759978E-2,-3.4864135E-2,8.7349373E-1,-7.6703966E-1,-0E0,-2.7850577E-1,3.331221E-1,7.824641E-4,-2.1566668E-1,9.157633E-1,-0E0,-8.432871E-5,-8.477792E-3,-3.1959792E-3,-0E0,-0E0,3.960243E-3,-2.524445E-3,-0E0,9.55705E-3,-0E0],"categories":[0,1,2,3,4,5,6,7,8,9,10,11,12,13,14,15,16,17,18,19,20,21,22,23,25,29,0],"categories_nodes":[7,13],"categories_segments":[0,26],"categories_sizes":[26,1],"default_left":[0,0,0,0,0,0,0,1,0,0,0,0,0,1,0,0,0,0,0,0,0,0,0,0,0],"id":0,"left_children":[1,3,5,7,9,11,13,15,-1,17,19,-1,21,23,-1,-1,-1,-1,-1,-1,-1,-1,-1,-1,-1],"loss_changes":[2.4614279E1,1.0482439E1,9.945722E0,1.8877907E0,3.8487122E0,8.1911707E-1,1.0771694E0,4.4644547E-1,0E0,2.6987505E-1,8.3147264E-1,0E0,1.7568177E-1,5.619488E-1,0E0,0E0,0E0,0E0,0E0,0E0,0E0,0E0,0E0,0E0,0E0],"parents":[2147483647,0,0,1,1,2,2,3,3,4,4,5,5,6,6,7,7,9,9,10,10,12,12,13,13],"right_children":[2,4,6,8,10,12,14,16,-1,18,20,-1,22,24,-1,-1,-1,-1,-1,-1,-1,-1,-1,-1,-1],"split_conditions":[1.8E1,2.5E1,2E1,2.3E1,7E0,-2E0,2.7E1,1E-45,-0E0,2.4E1,4E0,7.824641E-4,1E0,1E-45,-0E0,-8.432871E-5,-8.477792E-3,-3.1959792E-3,-0E0,-0E0,3.960243E-3,-2.524445E-3,-0E0,9.55705E-3,-0E0],"split_indices":[30,14,14,15,26,34,6,0,0,22,22,0,16,0,0,0,0,0,0,0,0,0,0,0,0],"split_type":[0,0,0,0,0,0,0,1,0,0,0,0,0,1,0,0,0,0,0,0,0,0,0,0,0],"sum_hessian":[9.0208275E1,5.328236E1,3.6925915E1,2.9491165E1,2.3791193E1,1.1647771E1,2.5278143E1,2.8004217E1,1.4869496E0,7.9303975E0,1.5860795E1,3.221724E0,8.426047E0,2.3543367E1,1.7347745E0,5.9477983E0,2.2056417E1,6.6912727E0,1.2391247E0,1.7347745E0,1.412602E1,6.6912727E0,1.7347745E0,2.1560768E1,1.9825994E0],"tree_param":{"num_deleted":"0","num_feature":"38","num_nodes":"25","size_leaf_vector":"1"}},{"base_weights":[3.0624326E-2,4.0571803E-1,-6.085408E-1,-2.3773779E-1,5.843039E-1,-0E0,-6.733486E-1,-3.3379474E-1,-0E0,-0E0,6.556811E-1,-7.331871E-1,-0E0,-4.397163E-3,-0E0,-5.6422147E-4,-0E0,-0E0,7.1153617E-3,-7.6622115E-3,-0E0],"categories":[],"categories_nodes":[],"categories_segments":[],"categories_sizes":[],"default_left":[0,0,0,0,0,0,0,0,0,0,0,0,0,0,0,0,0,0,0,0,0],"id":1,"left_children":[1,3,5,7,9,-1,11,13,-1,15,17,19,-1,-1,-1,-1,-1,-1,-1,-1,-1],"loss_changes":[2.52115E1,9.750272E0,1.7836857E0,8.148346E-1,3.0684757E0,0E0,1.8571434E0,7.872268E-1,0E0,3.714778E-2,1.8484421E0,2.1137238E-2,0E0,0E0,0E0,0E0,0E0,0E0,0E0,0E0,0E0],"parents":[2147483647,0,0,1,1,2,2,3,3,4,4,6,6,7,7,9,9,10,10,11,11],"right_children":[2,4,6,8,10,-1,12,14,-1,16,18,20,-1,-1,-1,-1,-1,-1,-1,-1,-1],"split_conditions":[2.2E1,3.17E-1,-2E0,1E0,4E0,-0E0,3.1E1,2.3E1,-0E0,2.9E1,7E0,2.5E1,-0E0,-4.397163E-3,-0E0,-5.6422147E-4,-0E0,-0E0,7.1153617E-3,-7.6622115E-3,-0E0],"split_indices":[33,2,34,37,29,0,14,24,0,14,28,22,0,0,0,0,0,0,0,0,0],"split_type":[0,0,0,0,0,0,0,0,0,0,0,0,0,0,0,0,0,0,0,0,0],"sum_hessian":[9.0206314E1,6.0705406E1,2.9500906E1,1.0165038E1,5.0540367E1,2.9739249E0,2.6526981E1,8.429246E0,1.7357925E0,4.9554462E0,4.5584923E1,2.4544605E1,1.982376E0,5.454171E0,2.9750748E0,3.4690006E0,1.4864457E0,4.461724E0,4.11232E1,2.1818035E1,2.7265708E0],"tree_param":{"num_deleted":"0","num_feature":"38","num_nodes":"21","size_leaf_vector":"1"}},{"base_weights":[7.423032E-2,-5.3313905E-1,5.2503574E-1,5.953568E-2,-6.7825705E-1,-1.1562632E-1,6.5159476E-1,-0E0,1.2648472E-3,-0E0,-8.09067E-1,-2.159483E-1,-0E0,7.4124926E-1,-0E0,6.8696914E-4,-0E0,-8.645268E-3,-0E0,-0E0,-2.988694E-3,-0E0,8.000848E-3,-6.196359E-4,-0E0],"categories":[],"categories_nodes":[],"categories_segments":[],"categories_sizes":[],"default_left":[0,0,0,0,0,0,0,0,0,0,0,0,0,0,0,0,0,0,0,0,0,0,0,0,0],"id":2,"left_children":[1,3,5,7,9,11,13,-1,-1,15,17,19,-1,21,23,-1,-1,-1,-1,-1,-1,-1,-1,-1,-1],"loss_changes":[3.132123E1,5.642411E0,7.11429E0,1.2858818E-1,4.488159E0,4.5422578E-1,4.59762E0,0E0,0E0,5.6249153E-2,2.2277527E0,4.7131085E-1,0E0,3.1987305E0,4.670489E-2,0E0,0E0,0E0,0E0,0E0,0E0,0E0,0E0,0E0,0E0],"parents":[2147483647,0,0,1,1,2,2,3,3,4,4,5,5,6,6,9,9,10,10,11,11,13,13,14,14],"right_children":[2,4,6,8,10,12,14,-1,-1,16,18,20,-1,22,24,-1,-1,-1,-1,-1,-1,-1,-1,-1,-1],"split_conditions":[1.9E1,1.4E1,5E0,2.4E1,5E0,2E1,2.1E1,-0E0,1.2648472E-3,2.1E1,2.9E1,6E0,-0E0,3E0,2.5E1,6.8696914E-4,-0E0,-8.645268E-3,-0E0,-0E0,-2.988694E-3,-0E0,8.000848E-3,-6.196359E-4,-0E0],"split_indices":[15,32,23,27,25,3,3,0,0,9,26,5,0,25,26,0,0,0,0,0,0,0,0,0,0],"split_type":[0,0,0,0,0,0,0,0,0,0,0,0,0,0,0,0,0,0,0,0,0,0,0,0,0],"sum_hessian":[9.786847E1,3.9166027E1,5.8702442E1,5.9440436E0,3.322198E1,7.1934547E0,5.1508987E1,2.9728084E0,2.971235E0,5.454972E0,2.7767012E1,5.953461E0,1.2399937E0,4.6306473E1,5.202515E0,3.7190459E0,1.7359262E0,2.6281061E1,1.48595E0,1.4877467E0,4.4657145E0,2.7247338E0,4.3581738E1,3.9643564E0,1.2381588E0],"tree_param":{"num_deleted":"0","num_feature":"38","num_nodes":"25","size_leaf_vector":"1"}},{"base_weights":[-0E0,-5.277354E-1,2.474894E-1,-0E0,-6.4096755E-1,6.190634E-1,-1.2859853E-1,-0E0,5.2306725E-4,-7.5728516E-3,-0E0,-0E0,6.484386E-1,1.9326502E-1,-3.5880077E-1,1.6234539E-4,-0E0,6.7228354E-3,-0E0,-0E0,2.997095E-3,-0E0,-4.0782616E-3],"categories":[],"categories_nodes":[],"categories_segments":[],"categories_sizes":[],"default_left":[0,0,0,0,0,0,0,0,0,0,0,0,0,0,0,0,0,0,0,0,0,0,0],"id":3,"left_children":[1,3,5,7,9,11,13,-1,-1,-1,15,-1,17,19,21,-1,-1,-1,-1,-1,-1,-1,-1],"loss_changes":[1.5146318E1,3.397542E0,1.2538284E1,2.9221788E-2,3.0329542E0,9.8963547E-1,4.0779424E0,0E0,0E0,0E0,2.618102E-3,0E0,5.3424644E-1,7.3886716E-1,7.717891E-1,0E0,0E0,0E0,0E0,0E0,0E0,0E0,0E0],"parents":[2147483647,0,0,1,1,2,2,3,3,4,4,5,5,6,6,10,10,12,12,13,13,14,14],"right_children":[2,4,6,8,10,12,14,-1,-1,-1,16,-1,18,20,22,-1,-1,-1,-1,-1,-1,-1,-1],"split_conditions":[2E1,7E0,5E-1,1E1,2.8E1,2E0,1.2E1,-0E0,5.2306725E-4,-7.5728516E-3,2.56E-1,-0E0,2.4E1,3E0,-1E0,1.6234539E-4,-0E0,6.7228354E-3,-0E0,-0E0,2.997095E-3,-0E0,-4.0782616E-3],"split_indices":[14,25,20,6,21,3,6,0,0,0,20,0,3,12,34,0,0,0,0,0,0,0,0],"split_type":[0,0,0,0,0,0,0,0,0,0,0,0,0,0,0,0,0,0,0,0,0,0,0],"sum_hessian":[9.885503E1,2.9023E1,6.983203E1,3.7200782E0,2.5302923E1,3.5136982E1,3.4695045E1,1.2395743E0,2.480504E0,2.109004E1,4.2128816E0,1.4838872E0,3.3653095E1,1.1393139E1,2.3301905E1,1.7335984E0,2.479283E0,3.1918858E1,1.7342383E0,3.2203581E0,8.172781E0,2.4782264E0,2.0823679E1],"tree_param":{"num_deleted":"0","num_feature":"38","num_nodes":"23","size_leaf_vector":"1"}},{"base_weights":[4.158447E-2,3.8530496E-1,-6.1064583E-1,8.9175564E-1,-6.8132326E-2,-0E0,-6.7175096E-1,9.305388E-3,-0E0,-2.2982597E-1,1.873733E-1,-7.280721E-1,-0E0,-3.7546414E-3,-0E0,3.0466712E-3,-0E0,-0E0,-7.970005E-3],"categories":[0,2,4,5,6,7,8,9,10,11,13,17,19,20,21,24,25,26,0,1,2,3,4,5,6,7,8,9,10,11,12,13,14,15,16,17,18,19,20,21,22,27],"categories_nodes":[1,11],"categories_segments":[0,18],"categories_sizes":[18,24],"default_left":[0,1,0,0,0,0,0,0,0,0,0,1,0,0,0,0,0,0,0],"id":4,"left_children":[1,3,5,7,9,-1,11,-1,-1,13,15,17,-1,-1,-1,-1,-1,-1,-1],"loss_changes":[2.458646E1,1.9262539E1,1.7587395E0,1.1773891E0,2.2914155E0,0E0,8.59046E-1,0E0,0E0,1.1081038E0,8.0374026E-1,5.566292E-1,0E0,0E0,0E0,0E0,0E0,0E0,0E0],"parents":[2147483647,0,0,1,1,2,2,3,3,4,4,6,6,9,9,10,10,11,11],"right_children":[2,4,6,8,10,-1,12,-1,-1,14,16,18,-1,-1,-1,-1,-1,-1,-1],"split_conditions":[2.2E1,1E-45,9E0,2.1E1,3E1,-0E0,3E1,9.305388E-3,-0E0,1.1E1,2.5E1,1E-45,-0E0,-3.7546414E-3,-0E0,3.0466712E-3,-0E0,-0E0,-7.970005E-3],"split_indices":[3,1,8,3,14,0,3,0,0,12,24,1,0,0,0,0,0,0,0],"split_type":[0,1,0,0,0,0,0,0,0,0,0,1,0,0,0,0,0,0,0],"sum_hessian":[9.4874756E1,6.633759E1,2.8537163E1,2.9676096E1,3.6661495E1,2.4820495E0,2.6055115E1,2.7944397E1,1.7316978E0,2.7751226E1,8.91027E0,2.2580954E1,3.4741597E0,1.3130607E1,1.4620619E1,6.930676E0,1.9795939E0,4.2176456E0,1.8363308E1],"tree_param":{"num_deleted":"0","num_feature":"38","num_nodes":"19","size_leaf_vector":"1"}},{"base_weights":[1.3919699E-1,8.0417407E-1,-3.2934257E-1,8.428967E-1,-0E0,4.8906412E-2,-9.221476E-1,-0E0,8.61107E-3,3.020384E-1,-3.458124E-1,-0E0,-1.01412535E-2,-0E0,4.19389E-3,-0E0,-4.6544326E-3],"categories":[0,1,2,4,5,7,8,9,10,11,12,13,14,17,19,20,21,22,23,1,4,6,15,22,23,25,26,27,29],"categories_nodes":[0,2],"categories_segments":[0,19],"categories_sizes":[19,10],"default_left":[1,0,1,0,0,0,0,0,0,0,0,0,0,0,0,0,0],"id":5,"left_children":[1,3,5,7,-1,9,11,-1,-1,13,15,-1,-1,-1,-1,-1,-1],"loss_changes":[3.4151695E1,2.008173E0,1.6126003E1,4.4896126E-1,0E0,5.152223E0,1.7155495E0,0E0,0E0,2.0231187E0,8.7527204E-1,0E0,0E0,0E0,0E0,0E0,0E0],"parents":[2147483647,0,0,1,1,2,2,3,3,5,5,6,6,9,9,10,10],"right_children":[2,4,6,8,-1,10,12,-1,-1,14,16,-1,-1,-1,-1,-1,-1],"split_conditions":[1E-45,3E1,1E-45,2E0,-0E0,6.22E-1,5E0,-0E0,8.61107E-3,-1E0,1.1E1,-0E0,-1.01412535E-2,-0E0,4.19389E-3,-0E0,-4.6544326E-3],"split_indices":[1,8,0,10,0,20,27,0,0,16,9,0,0,0,0,0,0],"split_type":[1,0,1,0,0,0,0,0,0,0,0,0,0,0,0,0,0],"sum_hessian":[9.1393875E1,3.7114094E1,5.427978E1,3.5872795E1,1.2413006E0,3.5669792E1,1.860999E1,1.2388772E0,3.4633915E1,2.5992895E1,9.676897E0,2.9745247E0,1.5635466E1,4.9557343E0,2.103716E1,3.9683914E0,5.7085056E0],"tree_param":{"num_deleted":"0","num_feature":"38","num_nodes":"17","size_leaf_vector":"1"}},{"base_weights":[-8.257807E-2,1.5746921E-1,-7.558097E-1,-8.491834E-2,7.029761E-1,-0E0,-8.85952E-3,-3.440915E-1,1.14959694E-1,7.509058E-1,-0E0,2.99376E-4,-0E0,-0E0,-4.2974725E-3,3.9916467E-3,-7.5576734E-4,-0E0,7.7930517E-3],"categories":[1,3,15,18,22,28,29,0,1,2,3,4,0,1,2,3,4,5,6,7,8,9,11,12,14,15,16,17],"categories_nodes":[0,4,8],"categories_segments":[0,7,12],"categories_sizes":[7,5,16],"default_left":[1,0,0,0,1,0,0,0,1,0,0,0,0,0,0,0,0,0,0],"id":6,"left_children":[1,3,5,7,9,11,-1,13,15,17,-1,-1,-1,-1,-1,-1,-1,-1,-1],"loss_changes":[1.935008E1,1.2693582E1,4.403143E0,4.00524E0,6.23024E-1,8.461158E-3,0E0,1.1678047E0,2.8933797E0,4.0139675E-1,0E0,0E0,0E0,0E0,0E0,0E0,0E0,0E0,0E0],"parents":[2147483647,0,0,1,1,2,2,3,3,4,4,5,5,7,7,8,8,9,9],"right_children":[2,4,6,8,10,12,-1,14,16,18,-1,-1,-1,-1,-1,-1,-1,-1,-1],"split_conditions":[1E-45,2.2E1,-2E0,1.4E1,1E-45,-2E0,-8.85952E-3,7E0,1E-45,2E0,-0E0,2.99376E-4,-0E0,-0E0,-4.2974725E-3,3.9916467E-3,-7.5576734E-4,-0E0,7.7930517E-3],"split_indices":[0,23,35,24,0,16,0,5,0,6,0,0,0,0,0,0,0,0,0],"split_type":[1,0,0,0,1,0,0,0,1,0,0,0,0,0,0,0,0,0,0],"sum_hessian":[9.80913E1,7.47498E1,2.3341497E1,5.4008957E1,2.0740845E1,2.9762576E0,2.036524E1,2.5297077E1,2.8711878E1,1.8269144E1,2.471699E0,1.2405181E0,1.7357395E0,5.699005E0,1.9598072E1,1.2132725E1,1.6579153E1,1.233088E0,1.7036057E1],"tree_param":{"num_deleted":"0","num_feature":"38","num_nodes":"19","size_leaf_vector":"1"}},{"base_weights":[-4.6150596E-3,4.2693058E-1,-8.080803E-1,-1.323733E-1,5.9407824E-1,-1.0135025E0,-2.3304453E-2,-0E0,-2.8254478E-3,-0E0,7.3494166E-1,-1.0574833E-2,-0E0,9.9061295E-2,-2.89819E-1,6.761788E-4,-0E0,1.2898495E-3,-1.1499788E-3,-0E0,7.6591973E-3,-0E0,1.9802642E-3,-3.4326902E-3,-0E0],"categories":[0,1,3,4,15,18,22,25,28,29,0,1],"categories_nodes":[0,14],"categories_segments":[0,10],"categories_sizes":[10,2],"default_left":[1,0,0,0,0,0,0,0,0,0,0,0,0,0,1,0,0,0,0,0,0,0,0,0,0],"id":7,"left_children":[1,3,5,7,9,11,13,15,-1,17,19,-1,-1,21,23,-1,-1,-1,-1,-1,-1,-1,-1,-1,-1],"loss_changes":[3.957851E1,8.230923E0,4.2973595E0,8.128941E-1,4.7812157E0,1.0725632E0,1.2320224E0,5.4489717E-2,0E0,4.190511E-1,1.3386803E0,0E0,0E0,3.2110393E-1,2.9941118E-1,0E0,0E0,0E0,0E0,0E0,0E0,0E0,0E0,0E0,0E0],"parents":[2147483647,0,0,1,1,2,2,3,3,4,4,5,5,6,6,7,7,9,9,10,10,13,13,14,14],"right_children":[2,4,6,8,10,12,14,16,-1,18,20,-1,-1,22,24,-1,-1,-1,-1,-1,-1,-1,-1,-1,-1],"split_conditions":[1E-45,7E0,2E1,1.7E1,2.4E1,2.6E1,2.5E1,2E0,-2.8254478E-3,1.9E1,-2E0,-1.0574833E-2,-0E0,-1E0,1E-45,6.761788E-4,-0E0,1.2898495E-3,-1.1499788E-3,-0E0,7.6591973E-3,-0E0,1.9802642E-3,-3.4326902E-3,-0E0],"split_indices":[0,22,21,4,14,24,12,18,0,24,18,0,0,36,0,0,0,0,0,0,0,0,0,0,0],"split_type":[1,0,0,0,0,0,0,0,0,0,0,0,0,0,1,0,0,0,0,0,0,0,0,0,0],"sum_hessian":[9.558985E1,6.3068844E1,3.2521008E1,1.2150791E1,5.0918053E1,2.1860418E1,1.0660591E1,5.701264E0,6.4495273E0,1.1638274E1,3.9279778E1,2.0371117E1,1.4893012E0,5.6940894E0,4.966501E0,3.7176747E0,1.9835893E0,5.9412665E0,5.6970077E0,1.4810536E0,3.7798725E1,2.2287881E0,3.4653013E0,3.7264097E0,1.2400916E0],"tree_param":{"num_deleted":"0","num_feature":"38","num_nodes":"25","size_leaf_vector":"1"}},{"base_weights":[-9.0074874E-2,3.6109096E-1,-8.199218E-1,8.5621405E-1,-6.2096E-2,-0E0,-8.9734085E-3,8.970212E-3,-0E0,-2.7764457E-1,1.1770466E-1,-4.6727587E-3,-0E0,2.2364573E-3,-0E0],"categories":[1,3,6,15,18,21,22,25,27,28,29,0,2,4,5,6,7,8,9,10,11,12,13,14,15,17,19,20,21],"categories_nodes":[0,1],"categories_segments":[0,11],"categories_sizes":[11,18],"default_left":[1,1,0,0,0,0,0,0,0,0,0,0,0,0,0],"id":8,"left_children":[1,3,5,7,9,-1,-1,-1,-1,11,13,-1,-1,-1,-1],"loss_changes":[3.7193695E1,1.6172615E1,4.1859303E0,4.364586E-2,2.2107422E0,0E0,0E0,0E0,0E0,1.3690984E0,6.777222E-1,0E0,0E0,0E0,0E0],"parents":[2147483647,0,0,1,1,2,2,3,3,4,4,9,9,10,10],"right_children":[2,4,6,8,10,-1,-1,-1,-1,12,14,-1,-1,-1,-1],"split_conditions":[1E-45,1E-45,1E1,5E0,1.6E1,-0E0,-8.9734085E-3,8.970212E-3,-0E0,1.3E1,2.2E1,-4.6727587E-3,-0E0,2.2364573E-3,-0E0],"split_indices":[0,1,33,16,24,0,0,0,0,28,27,0,0,0,0],"split_type":[1,1,0,0,0,0,0,0,0,0,0,0,0,0,0],"sum_hessian":[9.4594246E1,5.9324608E1,3.5269638E1,2.5649918E1,3.367469E1,1.9787263E0,3.3290913E1,2.2694424E1,2.9554942E0,1.8344316E1,1.5330373E1,7.4416656E0,1.0902651E1,1.1867433E1,3.46294E0],"tree_param":{"num_deleted":"0","num_feature":"38","num_nodes":"15","size_leaf_vector":"1"}},{"base_weights":[3.7586357E-2,8.1393325E-1,-2.5696653E-1,8.631989E-3,-0E0,-5.7878673E-1,3.0384108E-1,-6.6841096E-2,-9.858392E-3,5.321688E-1,-0E0,1.4009982E-3,-3.0271888E-3,-0E0,6.070416E-3,3.0327466E-4,-1.3793962E-3],"categories":[0,1,3,4,6,7,8,9,12,15,17,18,19,21,22,23,24,25,26,27,28,29,0,1,3,15,18,21,23,28,29],"categories_nodes":[0,5],"categories_segments":[0,22],"categories_sizes":[22,9],"default_left":[1,0,0,0,0,1,0,0,0,0,0,0,0,0,0,0,0],"id":9,"left_children":[1,3,5,-1,-1,7,9,11,-1,13,15,-1,-1,-1,-1,-1,-1],"loss_changes":[2.5547688E1,1.464777E0,1.5778347E1,0E0,0E0,8.52902E0,2.8902695E0,2.3680096E0,0E0,1.2762518E0,2.6329726E-1,0E0,0E0,0E0,0E0,0E0,0E0],"parents":[2147483647,0,0,1,1,2,2,5,5,6,6,7,7,9,9,10,10],"right_children":[2,4,6,-1,-1,8,10,12,-1,14,16,-1,-1,-1,-1,-1,-1],"split_conditions":[1E-45,3.5E1,2E1,8.631989E-3,-0E0,1E-45,2E1,2.5E1,-9.858392E-3,9E0,1.8E1,1.4009982E-3,-3.0271888E-3,-0E0,6.070416E-3,3.0327466E-4,-1.3793962E-3],"split_indices":[0,32,21,0,0,0,3,32,0,28,32,0,0,0,0,0,0],"split_type":[1,0,0,0,0,1,0,0,0,0,0,0,0,0,0,0,0],"sum_hessian":[9.1149185E1,2.296138E1,6.8187805E1,2.1471758E1,1.4896207E0,4.542437E1,2.2763433E1,2.6524572E1,1.8899797E1,1.2099159E1,1.0664273E1,1.1386006E1,1.5138566E1,1.2352352E0,1.0863924E1,5.6982574E0,4.9660163E0],"tree_param":{"num_deleted":"0","num_feature":"38","num_nodes":"17","size_leaf_vector":"1"}},{"base_weights":[-0E0,6.129205E-1,-3.1815374E-1,7.202558E-1,-0E0,-4.4548306E-1,1.973173E-1,-0E0,7.7114045E-3,-0E0,-4.7039238E-1,-0E0,2.5023022E-3,1.9070672E-4,-2.3169757E-4,-2.5464984E-4,-5.488914E-3,-2.2509407E-4,4.4370885E-4],"categories":[],"categories_nodes":[],"categories_segments":[],"categories_sizes":[],"default_left":[0,0,0,0,0,0,0,0,0,0,0,0,0,0,0,0,0,0,0],"id":10,"left_children":[1,3,5,7,-1,9,11,-1,-1,13,15,17,-1,-1,-1,-1,-1,-1,-1],"loss_changes":[2.1004112E1,2.5882883E0,5.6292458E0,1.716774E0,0E0,6.441498E-1,9.635985E-2,0E0,0E0,8.816257E-3,7.0330524E-1,2.691691E-2,0E0,0E0,0E0,0E0,0E0,0E0,0E0],"parents":[2147483647,0,0,1,1,2,2,3,3,5,5,6,6,9,9,10,10,11,11],"right_children":[2,4,6,8,-1,10,12,-1,-1,14,16,18,-1,-1,-1,-1,-1,-1,-1],"split_conditions":[4.51E-1,2.5E1,2.6E1,-8E0,-0E0,2E0,2E0,-0E0,7.7114045E-3,1.8E1,-1E0,5.37E-1,2.5023022E-3,1.9070672E-4,-2.3169757E-4,-2.5464984E-4,-5.488914E-3,-2.2509407E-4,4.4370885E-4],"split_indices":[20,28,29,17,0,21,17,0,0,4,17,20,0,0,0,0,0,0,0],"split_type":[0,0,0,0,0,0,0,0,0,0,0,0,0,0,0,0,0,0,0],"sum_hessian":[8.8620766E1,2.9598257E1,5.902251E1,2.4161297E1,5.436959E0,5.1335217E1,7.6872935E0,1.2429008E0,2.2918396E1,3.2271905E0,4.810803E1,4.469651E0,3.217642E0,1.7358166E0,1.491374E0,1.2664508E1,3.544352E1,1.4920365E0,2.9776149E0],"tree_param":{"num_deleted":"0","num_feature":"38","num_nodes":"19","size_leaf_vector":"1"}},{"base_weights":[2.8762024E-2,-5.4484594E-1,6.884141E-1,-8.6570215E-1,-0E0,-5.0882928E-2,8.6059505E-1,-0E0,-9.322028E-3,2.1884587E-1,-2.3288496E-1,-2.1859442E-3,-0E0,9.105866E-1,-0E0,3.1047831E-3,-0E0,-3.040293E-3,-0E0,9.604668E-3,-0E0],"categories":[],"categories_nodes":[],"categories_segments":[],"categories_sizes":[],"default_left":[0,0,0,0,0,0,0,0,0,0,0,0,0,0,0,0,0,0,0,0,0],"id":11,"left_children":[1,3,5,7,9,11,13,-1,-1,15,17,-1,-1,19,-1,-1,-1,-1,-1,-1,-1],"loss_changes":[4.148844E1,1.0332947E1,8.611645E0,1.1012039E0,1.8764945E0,5.6537765E-1,2.3395958E0,0E0,0E0,7.0976114E-1,5.0748587E-1,0E0,0E0,1.9592438E0,0E0,0E0,0E0,0E0,0E0,0E0,0E0],"parents":[2147483647,0,0,1,1,2,2,3,3,4,4,5,5,6,6,9,9,10,10,13,13],"right_children":[2,4,6,8,10,12,14,-1,-1,16,18,-1,-1,20,-1,-1,-1,-1,-1,-1,-1],"split_conditions":[2.4E1,1.8E1,7E0,1.1E1,2.2E1,1.8E1,3.1E1,-0E0,-9.322028E-3,4.51E-1,2.8E1,-2.1859442E-3,-0E0,2.6E1,-0E0,3.1047831E-3,-0E0,-3.040293E-3,-0E0,9.604668E-3,-0E0],"split_indices":[14,23,26,4,5,7,32,0,0,20,21,0,0,4,0,0,0,0,0,0,0],"split_type":[0,0,0,0,0,0,0,0,0,0,0,0,0,0,0,0,0,0,0,0,0],"sum_hessian":[9.255978E1,4.8650455E1,4.3909325E1,2.8106306E1,2.054415E1,7.19161E0,3.6717716E1,3.728003E0,2.4378302E1,1.1854963E1,8.689186E0,4.466033E0,2.7255766E0,3.474272E1,1.9749953E0,9.126964E0,2.7279992E0,7.1999655E0,1.4892205E0,3.2522076E1,2.220645E0],"tree_param":{"num_deleted":"0","num_feature":"38","num_nodes":"21","size_leaf_vector":"1"}},{"base_weights":[-0E0,7.754354E-1,-3.8348207E-1,-3.5331163E-4,8.992404E-1,-6.27759E-1,1.3132885E-1,-0E0,9.254974E-1,-0E0,-6.975595E-1,-0E0,2.2168149E-1,-0E0,9.6073765E-3,-0E0,-7.390856E-3,-0E0,3.160393E-3],"categories":[],"categories_nodes":[],"categories_segments":[],"categories_sizes":[],"default_left":[0,0,0,0,0,0,0,0,0,0,0,0,0,0,0,0,0,0,0],"id":12,"left_children":[1,3,5,-1,7,9,11,-1,13,-1,15,-1,17,-1,-1,-1,-1,-1,-1],"loss_changes":[3.272567E1,5.7282124E0,1.0495928E1,0E0,6.081829E-1,3.328436E0,6.466681E-1,0E0,1.842289E-1,0E0,1.8248253E0,0E0,8.220264E-1,0E0,0E0,0E0,0E0,0E0,0E0],"parents":[2147483647,0,0,1,1,2,2,4,4,5,5,6,6,8,8,10,10,12,12],"right_children":[2,4,6,-1,8,10,12,-1,14,-1,16,-1,18,-1,-1,-1,-1,-1,-1],"split_conditions":[4.51E-1,2.93E-1,6.1E-1,-3.5331163E-4,-2E0,2E0,2E1,-0E0,-2E0,-0E0,3E0,-0E0,5E0,-0E0,9.6073765E-3,-0E0,-7.390856E-3,-0E0,3.160393E-3],"split_indices":[20,2,2,0,16,21,33,0,17,0,6,0,21,0,0,0,0,0,0],"split_type":[0,0,0,0,0,0,0,0,0,0,0,0,0,0,0,0,0,0,0],"sum_hessian":[9.104982E1,2.9058285E1,6.1991535E1,2.4856799E0,2.6572605E1,4.3457085E1,1.8534449E1,1.2350197E0,2.5337585E1,2.98044E0,4.0476646E1,4.192654E0,1.4341794E1,2.2156277E0,2.3121958E1,1.9755588E0,3.8501087E1,3.2208695E0,1.1120925E1],"tree_param":{"num_deleted":"0","num_feature":"38","num_nodes":"19","size_leaf_vector":"1"}},{"base_weights":[3.751115E-3,4.4711298E-1,-3.0345094E-1,6.57719E-1,-1.5191737E-1,1.1102061E-2,-5.767694E-1,-0E0,6.922329E-1,-0E0,-2.8277308E-1,2.1462126E-1,-1.6202633E-1,-6.086216E-1,-0E0,7.1099745E-3,-0E0,-3.389746E-3,-0E0,2.7287423E-3,-0E0,-0E0,-2.6225958E-3,-0E0,-6.3506397E-3],"categories":[],"categories_nodes":[],"categories_segments":[],"categories_sizes":[],"default_left":[0,0,0,0,0,0,0,0,0,0,0,0,0,0,0,0,0,0,0,0,0,0,0,0,0],"id":13,"left_children":[1,3,5,7,9,11,13,-1,15,-1,17,19,21,23,-1,-1,-1,-1,-1,-1,-1,-1,-1,-1,-1],"loss_changes":[1.4686199E1,7.6224346E0,6.3287096E0,5.889473E-1,7.989783E-1,1.5342648E0,8.814535E-1,0E0,3.1204414E-1,0E0,3.11952E-1,5.463021E-1,5.992503E-1,3.287754E-1,0E0,0E0,0E0,0E0,0E0,0E0,0E0,0E0,0E0,0E0,0E0],"parents":[2147483647,0,0,1,1,2,2,3,3,4,4,5,5,6,6,8,8,10,10,11,11,12,12,13,13],"right_children":[2,4,6,8,10,12,14,-1,16,-1,18,20,22,24,-1,-1,-1,-1,-1,-1,-1,-1,-1,-1,-1],"split_conditions":[1.4E1,2.4E1,2E1,4E0,-1E0,2.5E1,3E1,-0E0,1.3E1,-0E0,1.3E1,1E0,1.1E1,-2E0,-0E0,7.1099745E-3,-0E0,-3.389746E-3,-0E0,2.7287423E-3,-0E0,-0E0,-2.6225958E-3,-0E0,-6.3506397E-3],"split_indices":[5,33,33,29,34,5,12,0,5,0,29,19,22,34,0,0,0,0,0,0,0,0,0,0,0],"split_type":[0,0,0,0,0,0,0,0,0,0,0,0,0,0,0,0,0,0,0,0,0,0,0,0,0],"sum_hessian":[8.934891E1,3.770618E1,5.1642723E1,2.9773733E1,7.932446E0,2.4265654E1,2.7377071E1,2.4631925E0,2.7310541E1,1.4840204E0,6.448426E0,1.5560518E1,8.705134E0,2.6130272E1,1.2467996E0,2.6078169E1,1.2323718E0,4.708621E0,1.739805E0,1.3835431E1,1.7250872E0,1.7400919E0,6.9650426E0,1.9841272E0,2.4146145E1],"tree_param":{"num_deleted":"0","num_feature":"38","num_nodes":"25","size_leaf_vector":"1"}},{"base_weights":[1.4966513E-1,6.8592733E-1,-2.4055976E-1,8.3767146E-1,-1.3143621E-1,2.3724948E-1,-6.5906465E-1,-0E0,8.64728E-3,-2.2094052E-3,-0E0,-0E0,4.540021E-1,-7.060655E-1,-0E0,4.1112717E-4,-8.7317015E-4,-0E0,4.737696E-3,-0E0,-7.5724265E-3],"categories":[0,1,2,3,4,6,8,9,12,15,18,19,21,22,23,25,26,28,29,0,1,2,3],"categories_nodes":[0,11],"categories_segments":[0,19],"categories_sizes":[19,4],"default_left":[1,0,0,0,0,0,0,0,0,0,0,1,0,0,0,0,0,0,0,0,0],"id":14,"left_children":[1,3,5,7,9,11,13,-1,-1,-1,-1,15,17,19,-1,-1,-1,-1,-1,-1,-1],"loss_changes":[2.2810143E1,7.981251E0,1.4283283E1,4.4197273E-1,3.113038E-1,1.7039076E0,1.6227446E0,0E0,0E0,0E0,0E0,1.1815029E-1,3.5096645E-2,1.3652916E0,0E0,0E0,0E0,0E0,0E0,0E0,0E0],"parents":[2147483647,0,0,1,1,2,2,3,3,4,4,5,5,6,6,11,11,12,12,13,13],"right_children":[2,4,6,8,10,12,14,-1,-1,-1,-1,16,18,20,-1,-1,-1,-1,-1,-1,-1],"split_conditions":[1E-45,6.34E-1,5E-1,5E0,2.3E1,2E1,6.34E-1,-0E0,8.64728E-3,-2.2094052E-3,-0E0,1E-45,9E0,5E0,-0E0,4.1112717E-4,-8.7317015E-4,-0E0,4.737696E-3,-0E0,-7.5724265E-3],"split_indices":[0,20,20,22,15,15,2,0,0,0,0,0,21,7,0,0,0,0,0,0,0],"split_type":[1,0,0,0,0,0,0,0,0,0,0,1,0,0,0,0,0,0,0,0,0],"sum_hessian":[9.0079994E1,3.7482117E1,5.259788E1,3.350504E1,3.977077E0,2.3985746E1,2.8612133E1,1.9779301E0,3.152711E1,2.4867094E0,1.4903678E0,1.5129699E1,8.856049E0,2.7129358E1,1.4827743E0,1.2399977E1,2.7297225E0,1.2372367E0,7.6188116E0,2.2330291E0,2.489633E1],"tree_param":{"num_deleted":"0","num_feature":"38","num_nodes":"21","size_leaf_vector":"1"}},{"base_weights":[-0E0,-5.0554997E-1,5.0229853E-1,1.6662684E-1,-8.510596E-1,6.64379E-1,-0E0,3.7519532E-1,-6.283038E-2,-0E0,-1.0155616E0,-0E0,6.785999E-1,-1.5117218E-1,2.1350062E-1,-0E0,4.7156736E-3,-1.7450948E-3,-0E0,-1.2431741E-3,1.9129382E-3,-0E0,-1.054766E-2,-0E0,7.1147573E-3,-2.7395075E-3,-0E0,-0E0,2.8549933E-3],"categories":[],"categories_nodes":[],"categories_segments":[],"categories_sizes":[],"default_left":[0,0,0,0,0,0,0,0,0,0,0,0,0,0,0,0,0,0,0,0,0,0,0,0,0,0,0,0,0],"id":15,"left_children":[1,3,5,7,9,11,13,15,17,19,21,-1,23,25,27,-1,-1,-1,-1,-1,-1,-1,-1,-1,-1,-1,-1,-1,-1],"loss_changes":[2.8903488E1,1.5286674E1,4.4795046E0,1.9445052E0,6.253477E0,2.689991E-1,1.046308E0,1.0914884E0,3.2437807E-1,5.7302064E-1,1.0909386E0,0E0,7.0293045E-1,7.825975E-1,3.5542917E-1,0E0,0E0,0E0,0E0,0E0,0E0,0E0,0E0,0E0,0E0,0E0,0E0,0E0,0E0],"parents":[2147483647,0,0,1,1,2,2,3,3,4,4,5,5,6,6,7,7,8,8,9,9,10,10,12,12,13,13,14,14],"right_children":[2,4,6,8,10,12,14,16,18,20,22,-1,24,26,28,-1,-1,-1,-1,-1,-1,-1,-1,-1,-1,-1,-1,-1,-1],"split_conditions":[2.4E1,4.51E-1,5.98E-1,2.5E1,5E0,3E0,1.8E1,1.2E1,1E0,2E1,3E0,-0E0,-2E0,3.1E1,1E1,-0E0,4.7156736E-3,-1.7450948E-3,-0E0,-1.2431741E-3,1.9129382E-3,-0E0,-1.054766E-2,-0E0,7.1147573E-3,-2.7395075E-3,-0E0,-0E0,2.8549933E-3],"split_indices":[14,20,20,12,25,25,25,9,37,11,9,0,18,14,9,0,0,0,0,0,0,0,0,0,0,0,0,0,0],"split_type":[0,0,0,0,0,0,0,0,0,0,0,0,0,0,0,0,0,0,0,0,0,0,0,0,0,0,0,0,0],"sum_hessian":[9.7444954E1,4.6720673E1,5.0724277E1,1.5338006E1,3.1382668E1,3.5629517E1,1.5094761E1,9.872397E0,5.465609E0,5.721441E0,2.5661226E1,1.2336059E0,3.4395912E1,8.927636E0,6.1671257E0,1.723639E0,8.148758E0,4.22302E0,1.242589E0,2.9869988E0,2.7344418E0,1.4897892E0,2.4171436E1,2.4569468E0,3.1938963E1,7.4433184E0,1.4843171E0,1.9720762E0,4.1950493E0],"tree_param":{"num_deleted":"0","num_feature":"38","num_nodes":"29","size_leaf_vector":"1"}},{"base_weights":[-5.5600707E-3,-4.1031647E-1,2.7013028E-1,-0E0,-5.6539595E-1,4.833771E-1,-2.5307906E-1,-1.0162754E-3,1.6643465E-1,-0E0,-7.037071E-1,-0E0,6.5491825E-1,-4.517905E-3,-0E0,-0E0,2.1712414E-3,-5.7938026E-4,1.1085623E-4,-0E0,-7.4715656E-3,3.3163736E-4,-7.0011755E-4,-0E0,7.104526E-3,1.92354E-4,-0E0],"categories":[0,1,2,3,4,5,6,7,8,9,10,11,12,13,14,15,16,17,18],"categories_nodes":[14],"categories_segments":[0],"categories_sizes":[19],"default_left":[0,0,0,0,0,0,0,0,0,0,0,0,0,0,1,0,0,0,0,0,0,0,0,0,0,0,0],"id":16,"left_children":[1,3,5,7,9,11,13,-1,15,17,19,21,23,-1,25,-1,-1,-1,-1,-1,-1,-1,-1,-1,-1,-1,-1],"loss_changes":[1.1655942E1,3.6078868E0,7.912653E0,5.3153574E-1,2.2512865E0,4.2311497E0,1.5990344E0,0E0,2.0035386E-1,4.5549966E-2,1.0031176E0,8.509646E-2,1.2977486E0,0E0,3.8624124E-3,0E0,0E0,0E0,0E0,0E0,0E0,0E0,0E0,0E0,0E0,0E0,0E0],"parents":[2147483647,0,0,1,1,2,2,3,3,4,4,5,5,6,6,8,8,9,9,10,10,11,11,12,12,14,14],"right_children":[2,4,6,8,10,12,14,-1,16,18,20,22,24,-1,26,-1,-1,-1,-1,-1,-1,-1,-1,-1,-1,-1,-1],"split_conditions":[3E0,8E0,2.5E1,3E0,9E0,9E0,1.7E1,-1.0162754E-3,6E0,2.2E1,2E0,4E0,1.1E1,-4.517905E-3,1E-45,-0E0,2.1712414E-3,-5.7938026E-4,1.1085623E-4,-0E0,-7.4715656E-3,3.3163736E-4,-7.0011755E-4,-0E0,7.104526E-3,1.92354E-4,-0E0],"split_indices":[31,5,5,12,25,11,27,0,23,12,3,31,23,0,0,0,0,0,0,0,0,0,0,0,0,0,0],"split_type":[0,0,0,0,0,0,0,0,0,0,0,0,0,0,1,0,0,0,0,0,0,0,0,0,0,0,0],"sum_hessian":[8.5598114E1,3.599788E1,4.960023E1,9.634315E0,2.6363565E1,3.83973E1,1.12029295E1,2.7154882E0,6.918826E0,7.705308E0,1.8658258E1,1.134867E1,2.7048634E1,5.7224355E0,5.4804945E0,1.9852933E0,4.9335327E0,4.969032E0,2.736276E0,1.2360289E0,1.742223E1,5.1930013E0,6.1556683E0,2.7241213E0,2.4324512E1,2.2389348E0,3.2415597E0],"tree_param":{"num_deleted":"0","num_feature":"38","num_nodes":"27","size_leaf_vector":"1"}},{"base_weights":[-0E0,-4.7579378E-1,5.41859E-1,3.0915631E-2,-6.981032E-1,7.598908E-1,-7.680981E-2,-1.3434616E-1,2.4241896E-1,-0E0,-9.172342E-3,8.020819E-1,-0E0,-1.5459105E-1,-0E0,-0E0,-2.136624E-3,2.6251073E-3,-0E0,1.2969611E-3,-1.3210552E-3,-0E0,8.215671E-3,-1.8166889E-3,-0E0],"categories":[1,3,6,18,22,24,25,27,28,29],"categories_nodes":[4],"categories_segments":[0],"categories_sizes":[10],"default_left":[0,0,0,0,1,0,0,0,0,0,0,0,0,0,0,0,0,0,0,0,0,0,0,0,0],"id":17,"left_children":[1,3,5,7,9,11,13,15,17,19,-1,21,-1,23,-1,-1,-1,-1,-1,-1,-1,-1,-1,-1,-1],"loss_changes":[2.921696E1,8.311307E0,8.989328E0,1.3052008E0,6.3234215E0,1.35886E0,3.098149E-1,2.9562205E-1,6.933272E-2,4.784458E-1,0E0,4.3404007E-1,0E0,1.0321632E-1,0E0,0E0,0E0,0E0,0E0,0E0,0E0,0E0,0E0,0E0,0E0],"parents":[2147483647,0,0,1,1,2,2,3,3,4,4,5,5,6,6,7,7,8,8,9,9,11,11,13,13],"right_children":[2,4,6,8,10,12,14,16,18,20,-1,22,-1,24,-1,-1,-1,-1,-1,-1,-1,-1,-1,-1,-1],"split_conditions":[2.4E1,1.4E1,2.3E1,1.4E1,1E-45,3.1E1,2.8E1,-6E0,3E1,8E0,-9.172342E-3,5E0,-0E0,1.8E1,-0E0,-0E0,-2.136624E-3,2.6251073E-3,-0E0,1.2969611E-3,-1.3210552E-3,-0E0,8.215671E-3,-1.8166889E-3,-0E0],"split_indices":[14,33,33,14,0,32,28,35,23,29,0,26,0,26,0,0,0,0,0,0,0,0,0,0,0],"split_type":[0,0,0,0,1,0,0,0,0,0,0,0,0,0,0,0,0,0,0,0,0,0,0,0,0],"sum_hessian":[9.693161E1,5.2165596E1,4.4766014E1,1.5316931E1,3.6848663E1,3.410696E1,1.0659051E1,4.969331E0,1.03476E1,1.1437385E1,2.541128E1,3.1885374E1,2.2215872E0,9.419533E0,1.2395184E0,1.4870766E0,3.4822543E0,8.6232E0,1.7243993E0,3.4816465E0,7.9557376E0,1.2358298E0,3.0649544E1,7.685996E0,1.7335361E0],"tree_param":{"num_deleted":"0","num_feature":"38","num_nodes":"25","size_leaf_vector":"1"}},{"base_weights":[-5.8266543E-2,-5.7840383E-1,2.8578117E-1,-0E0,-6.7625654E-1,5.70788E-1,-0E0,-5.1429007E-2,8.0197635E-5,-0E0,-7.49354E-1,-0E0,6.562322E-1,2.511271E-1,-2.3682123E-1,-1.3995053E-3,-0E0,-0E0,1.9689086E-4,-0E0,-7.870073E-3,-0E0,-2.9746367E-4,-0E0,7.5425324E-3,-0E0,3.8420437E-3,-0E0,-3.491171E-3],"categories":[],"categories_nodes":[],"categories_segments":[],"categories_sizes":[],"default_left":[0,0,0,0,0,0,0,0,0,0,0,0,0,0,0,0,0,0,0,0,0,0,0,0,0,0,0,0,0],"id":18,"left_children":[1,3,5,7,9,11,13,15,-1,17,19,21,23,25,27,-1,-1,-1,-1,-1,-1,-1,-1,-1,-1,-1,-1,-1,-1],"loss_changes":[1.978036E1,2.1017132E0,6.2146664E0,3.7360076E-2,2.21554E0,2.1686401E0,2.6294456E0,1.723543E-1,0E0,3.8519134E-3,7.533283E-1,8.570608E-3,1.5582743E0,1.0334792E0,1.3132917E0,0E0,0E0,0E0,0E0,0E0,0E0,0E0,0E0,0E0,0E0,0E0,0E0,0E0,0E0],"parents":[2147483647,0,0,1,1,2,2,3,3,4,4,5,5,6,6,7,7,9,9,10,10,11,11,12,12,13,13,14,14],"right_children":[2,4,6,8,10,12,14,16,-1,18,20,22,24,26,28,-1,-1,-1,-1,-1,-1,-1,-1,-1,-1,-1,-1,-1,-1],"split_conditions":[3E0,8E0,1.5E1,2.3E1,5E0,1.1E1,-1E0,6E0,8.0197635E-5,7E0,2E0,1.6E1,9E0,1.3E1,1E1,-1.3995053E-3,-0E0,-0E0,1.9689086E-4,-0E0,-7.870073E-3,-0E0,-2.9746367E-4,-0E0,7.5425324E-3,-0E0,3.8420437E-3,-0E0,-3.491171E-3],"split_indices":[31,5,5,22,9,23,34,4,0,23,21,4,28,6,4,0,0,0,0,0,0,0,0,0,0,0,0,0,0],"split_type":[0,0,0,0,0,0,0,0,0,0,0,0,0,0,0,0,0,0,0,0,0,0,0,0,0,0,0,0,0],"sum_hessian":[9.1489716E1,3.6514297E1,5.497542E1,7.4082108E0,2.9106087E1,2.6711893E1,2.8263527E1,5.683767E0,1.7244437E0,2.9777021E0,2.6128384E1,3.4636366E0,2.3248257E1,9.638625E0,1.8624903E1,2.4746878E0,3.2090793E0,1.2413855E0,1.7363166E0,1.989958E0,2.4138426E1,1.9776531E0,1.4859836E0,4.903649E0,1.8344606E1,3.2161403E0,6.422485E0,3.706392E0,1.491851E1],"tree_param":{"num_deleted":"0","num_feature":"38","num_nodes":"29","size_leaf_vector":"1"}},{"base_weights":[8.161991E-2,-4.71975E-1,5.121708E-1,3.942713E-2,-6.3596076E-1,8.111273E-1,-1.164592E-1,1.7227964E-1,-0E0,-7.125474E-1,-0E0,8.6450684E-1,-0E0,-2.4983661E-1,-0E0,-0E0,2.2093318E-3,-0E0,-7.421811E-3,-1.1005093E-3,6.632051E-5,9.385957E-3,3.7796173E-4,-2.2922076E-4,1.0299797E-3,1.1931134E-4,-4.0077353E-3,1.2390999E-3,-0E0],"categories":[0,1,2,4,5,6,7,8,9,10,11,12,13,14,15,16,17,18,19,20,21,22,23,24,0,2,4,5,6,7,8,9,10,20,0,1,2,3,4,5,6,7,8,9,10,11,12,13],"categories_nodes":[1,2,12],"categories_segments":[0,24,34],"categories_sizes":[24,10,14],"default_left":[0,1,1,0,0,0,0,0,0,0,0,0,1,0,0,0,0,0,0,0,0,0,0,0,0,0,0,0,0],"id":19,"left_children":[1,3,5,7,9,11,13,15,-1,17,19,21,23,25,27,-1,-1,-1,-1,-1,-1,-1,-1,-1,-1,-1,-1,-1,-1],"loss_changes":[2.5233635E1,5.1527967E0,1.35618725E1,3.880032E-1,9.508419E-1,1.1809368E0,8.294108E-1,1.9357255E-1,0E0,1.2724304E-1,1.4207608E-1,2.4108505E-1,1.15732454E-1,1.5527679E0,1.9814458E-1,0E0,0E0,0E0,0E0,0E0,0E0,0E0,0E0,0E0,0E0,0E0,0E0,0E0,0E0],"parents":[2147483647,0,0,1,1,2,2,3,3,4,4,5,5,6,6,7,7,9,9,10,10,11,11,12,12,13,13,14,14],"right_children":[2,4,6,8,10,12,14,16,-1,18,20,22,24,26,28,-1,-1,-1,-1,-1,-1,-1,-1,-1,-1,-1,-1,-1,-1],"split_conditions":[1.9E1,1E-45,1E-45,2.6E1,2.7E1,2.3E1,2.3E1,1.2E1,-0E0,3E0,1.7E1,2.5E1,1E-45,2.2E1,2E1,-0E0,2.2093318E-3,-0E0,-7.421811E-3,-1.1005093E-3,6.632051E-5,9.385957E-3,3.7796173E-4,-2.2922076E-4,1.0299797E-3,1.1931134E-4,-4.0077353E-3,1.2390999E-3,-0E0],"split_indices":[15,1,1,8,10,33,15,32,0,27,21,9,0,33,27,0,0,0,0,0,0,0,0,0,0,0,0,0,0],"split_type":[0,1,1,0,0,0,0,0,0,0,0,0,1,0,0,0,0,0,0,0,0,0,0,0,0,0,0,0,0],"sum_hessian":[8.9014046E1,3.656511E1,5.244894E1,7.4291205E0,2.9135988E1,3.6087738E1,1.6361202E1,5.691335E0,1.7377851E0,2.3414112E1,5.721876E0,3.236755E1,3.7201889E0,1.0424789E1,5.936414E0,1.4788618E0,4.2124734E0,2.2431653E0,2.1170946E1,3.4930842E0,2.2287917E0,2.6466642E1,5.9009066E0,1.4908321E0,2.2293568E0,1.7284354E0,8.696354E0,4.7053432E0,1.2310705E0],"tree_param":{"num_deleted":"0","num_feature":"38","num_nodes":"29","size_leaf_vector":"1"}},{"base_weights":[7.508677E-2,-3.1047866E-1,4.987935E-1,3.1567934E-1,-5.2844185E-1,6.1592007E-1,-1.2924509E-1,4.1888803E-3,-0E0,-0E0,-5.895268E-1,6.4255446E-1,-0E0,-1.6998029E-3,-0E0,-8.395245E-4,5.889282E-4,-6.1839274E-3,-0E0,-0E0,6.8041403E-3],"categories":[],"categories_nodes":[],"categories_segments":[],"categories_sizes":[],"default_left":[0,0,0,0,0,0,0,0,0,0,0,0,0,0,0,0,0,0,0,0,0],"id":20,"left_children":[1,3,5,7,9,11,13,-1,15,-1,17,19,-1,-1,-1,-1,-1,-1,-1,-1,-1],"loss_changes":[1.8444881E1,9.493448E0,5.643018E0,6.629031E-1,1.8440285E0,1.0713367E0,1.1862822E-1,0E0,1.05306566E-1,0E0,8.466625E-1,1.0760899E0,0E0,0E0,0E0,0E0,0E0,0E0,0E0,0E0,0E0],"parents":[2147483647,0,0,1,1,2,2,3,3,4,4,5,5,6,6,8,8,10,10,11,11],"right_children":[2,4,6,8,10,12,14,-1,16,-1,18,20,-1,-1,-1,-1,-1,-1,-1,-1,-1],"split_conditions":[5.37E-1,3.66E-1,7.44E-1,2.1E1,4E0,3E1,6.22E-1,4.1888803E-3,9E0,-0E0,2.4E1,2E0,-0E0,-1.6998029E-3,-0E0,-8.395245E-4,5.889282E-4,-6.1839274E-3,-0E0,-0E0,6.8041403E-3],"split_indices":[2,20,20,9,25,25,2,0,27,0,14,3,0,0,0,0,0,0,0,0,0],"split_type":[0,0,0,0,0,0,0,0,0,0,0,0,0,0,0,0,0,0,0,0,0],"sum_hessian":[9.4626114E1,4.8218876E1,4.640724E1,9.13218E0,3.9086693E1,4.193018E1,4.4770594E0,5.421432E0,3.7107487E0,3.985787E0,3.5100906E1,4.045526E1,1.4749205E0,3.2348135E0,1.2422459E0,1.7325835E0,1.9781651E0,3.3366783E1,1.7341232E0,2.9395545E0,3.7515705E1],"tree_param":{"num_deleted":"0","num_feature":"38","num_nodes":"21","size_leaf_vector":"1"}},{"base_weights":[-0E0,4.453005E-1,-4.4914398E-1,-8.2228355E-2,7.488397E-1,-5.853173E-1,-0E0,-0E0,-2.1483415E-1,8.1627417E-1,-0E0,-6.7809397E-1,-0E0,1.04694106E-1,-2.2505197E-1,1.7215653E-3,-5.498438E-4,-0E0,-2.4826005E-3,8.576286E-3,-0E0,-7.44669E-3,-0E0,-4.5461103E-4,-0E0,2.7930858E-3,-1.7134401E-4,-0E0,-2.7926415E-3],"categories":[],"categories_nodes":[],"categories_segments":[],"categories_sizes":[],"default_left":[0,0,0,0,0,0,0,0,0,0,0,0,0,0,0,0,0,0,0,0,0,0,0,0,0,0,0,0,0],"id":21,"left_children":[1,3,5,7,9,11,13,15,17,19,-1,21,23,25,27,-1,-1,-1,-1,-1,-1,-1,-1,-1,-1,-1,-1,-1,-1],"loss_changes":[1.959988E1,9.447555E0,2.3485842E0,5.608988E-1,2.368599E0,1.4439421E0,8.6513007E-1,3.937496E-1,2.3640096E-2,7.574501E-1,0E0,9.502611E-1,2.206252E-2,9.221138E-1,2.7005708E-1,0E0,0E0,0E0,0E0,0E0,0E0,0E0,0E0,0E0,0E0,0E0,0E0,0E0,0E0],"parents":[2147483647,0,0,1,1,2,2,3,3,4,4,5,5,6,6,7,7,8,8,9,9,11,11,12,12,13,13,14,14],"right_children":[2,4,6,8,10,12,14,16,18,20,-1,22,24,26,28,-1,-1,-1,-1,-1,-1,-1,-1,-1,-1,-1,-1,-1,-1],"split_conditions":[5E-1,2.2E1,1.1E1,1.5E1,2.4E1,2.8E1,4E0,1E0,1.5E1,4E0,-0E0,9E0,5E0,2.9E1,-1E0,1.7215653E-3,-5.498438E-4,-0E0,-2.4826005E-3,8.576286E-3,-0E0,-7.44669E-3,-0E0,-4.5461103E-4,-0E0,2.7930858E-3,-1.7134401E-4,-0E0,-2.7926415E-3],"split_indices":[20,14,23,7,3,14,13,36,21,17,0,23,21,14,17,0,0,0,0,0,0,0,0,0,0,0,0,0,0],"split_type":[0,0,0,0,0,0,0,0,0,0,0,0,0,0,0,0,0,0,0,0,0,0,0,0,0,0,0,0,0],"sum_hessian":[8.156866E1,3.9321487E1,4.2247173E1,1.4138867E1,2.518262E1,2.8359962E1,1.3887212E1,6.9133906E0,7.2254763E0,2.3449636E1,1.7329816E0,2.2180387E1,6.1795754E0,8.653364E0,5.233847E0,3.9462192E0,2.9671714E0,3.4905968E0,3.7348795E0,2.1500772E1,1.948865E0,1.8704693E1,3.4756942E0,2.47518E0,3.7043955E0,5.9468083E0,2.7065556E0,1.2466621E0,3.987185E0],"tree_param":{"num_deleted":"0","num_feature":"38","num_nodes":"29","size_leaf_vector":"1"}},{"base_weights":[5.6496557E-2,3.4911013E-1,-5.889483E-1,6.223214E-1,-1.3125958E-1,-0E0,-6.7790267E-3,7.398874E-1,-0E0,-3.6836103E-1,-0E0,-0E0,7.577213E-3,-1.1715747E-4,1.3595343E-3,-0E0,-4.2594774E-3,-8.2330767E-4,1.8272153E-3],"categories":[0,1,2,3,18,22,28,29,0,1,2,3,4,5,6,7,8,9,10,11,12,13,14,15,16,17,18,19,20,21,22,23],"categories_nodes":[0,9],"categories_segments":[0,8],"categories_sizes":[8,24],"default_left":[1,0,0,0,0,0,0,0,0,1,0,0,0,0,0,0,0,0,0],"id":22,"left_children":[1,3,5,7,9,-1,-1,11,13,15,17,-1,-1,-1,-1,-1,-1,-1,-1],"loss_changes":[2.052437E1,1.1844061E1,2.7911272E0,2.5131378E0,1.6375396E0,0E0,0E0,4.2972565E-1,2.8010225E-1,5.13046E-1,6.615741E-1,0E0,0E0,0E0,0E0,0E0,0E0,0E0,0E0],"parents":[2147483647,0,0,1,1,2,2,3,3,4,4,7,7,8,8,9,9,10,10],"right_children":[2,4,6,8,10,-1,-1,12,14,16,18,-1,-1,-1,-1,-1,-1,-1,-1],"split_conditions":[1E-45,2.6E1,1.4E1,4E0,6E0,-0E0,-6.7790267E-3,2E0,2E1,1E-45,2.4E1,-0E0,7.577213E-3,-1.1715747E-4,1.3595343E-3,-0E0,-4.2594774E-3,-8.2330767E-4,1.8272153E-3],"split_indices":[0,32,32,13,23,0,0,31,23,0,14,0,0,0,0,0,0,0,0],"split_type":[1,0,0,0,0,0,0,0,0,1,0,0,0,0,0,0,0,0,0],"sum_hessian":[9.4084526E1,6.94587E1,2.4625828E1,4.5385765E1,2.4072935E1,1.976008E0,2.2649818E1,3.430023E1,1.1085539E1,7.9660764E0,1.610686E1,1.2285732E0,3.3071655E1,4.2234864E0,6.8620524E0,1.2479448E0,6.7181315E0,7.724715E0,8.382144E0],"tree_param":{"num_deleted":"0","num_feature":"38","num_nodes":"19","size_leaf_vector":"1"}},{"base_weights":[-6.886256E-2,-4.3336847E-1,3.6407778E-1,1.07582174E-1,-6.3174474E-1,5.9991527E-1,-1.5157902E-1,-9.702535E-2,3.653379E-1,-6.631753E-1,-0E0,6.7901486E-1,-0E0,-0E0,-2.4488524E-1,-0E0,-1.357091E-3,4.093422E-3,-0E0,-0E0,-6.979206E-3,-0E0,7.1143834E-3,-5.0362753E-5,3.5056723E-6,-0E0,-3.2743658E-3],"categories":[0,1,2,3,4,6,8,9,0,1,2,3,4,0,1,2,3,4,5,6,7,8,9,10,11,12,13,14,15,16,17,18,19,20,21,22,23,24,25,26,28,29],"categories_nodes":[5,8,9],"categories_segments":[0,8,13],"categories_sizes":[8,5,29],"default_left":[0,0,0,0,0,1,0,0,1,1,0,0,0,0,0,0,0,0,0,0,0,0,0,0,0,0,0],"id":23,"left_children":[1,3,5,7,9,11,13,15,17,19,-1,21,23,-1,25,-1,-1,-1,-1,-1,-1,-1,-1,-1,-1,-1,-1],"loss_changes":[1.5871649E1,7.6072493E0,6.965417E0,1.8455678E0,1.0595074E0,1.6632757E0,4.8850343E-1,9.338717E-2,2.0873988E-1,8.228874E-1,0E0,3.8217545E-1,2.653972E-4,0E0,4.917627E-1,0E0,0E0,0E0,0E0,0E0,0E0,0E0,0E0,0E0,0E0,0E0,0E0],"parents":[2147483647,0,0,1,1,2,2,3,3,4,4,5,5,6,6,7,7,8,8,9,9,11,11,12,12,14,14],"right_children":[2,4,6,8,10,12,14,16,18,20,-1,22,24,-1,26,-1,-1,-1,-1,-1,-1,-1,-1,-1,-1,-1,-1],"split_conditions":[5.85E-1,4.39E-1,2.4E1,4.15E-1,5E0,1E-45,1E0,1.7E1,1E-45,1E-45,-0E0,5E0,1.4E1,-0E0,6.1E-1,-0E0,-1.357091E-3,4.093422E-3,-0E0,-0E0,-6.979206E-3,-0E0,7.1143834E-3,-5.0362753E-5,3.5056723E-6,-0E0,-3.2743658E-3],"split_indices":[2,20,33,2,31,0,18,11,0,0,0,11,26,0,20,0,0,0,0,0,0,0,0,0,0,0,0],"split_type":[0,0,0,0,0,1,0,0,1,1,0,0,0,0,0,0,0,0,0,0,0,0,0,0,0,0,0],"sum_hessian":[8.329822E1,4.7726913E1,3.5571304E1,1.1107941E1,3.6618973E1,2.615012E1,9.4211855E0,4.7173395E0,6.3906016E0,3.48804E1,1.7385726E0,2.222075E1,3.9293687E0,2.7239118E0,6.697274E0,1.2438637E0,3.4734757E0,4.667988E0,1.7226136E0,2.4932806E0,3.238712E1,1.9545691E0,2.0266182E1,2.2154725E0,1.7138962E0,1.9780215E0,4.7192526E0],"tree_param":{"num_deleted":"0","num_feature":"38","num_nodes":"27","size_leaf_vector":"1"}},{"base_weights":[8.4984824E-2,-3.405358E-1,5.722717E-1,8.1752066E-4,-6.717288E-1,9.266303E-3,1.0259842E-1,-3.8348425E-3,2.3311134E-1,-6.9832853E-3,-0E0,-1.0089199E-1,2.7138063E-1,-0E0,3.5015806E-3,-2.5000656E-3,-0E0,3.2858273E-3,-0E0],"categories":[0,1,2,4,5,6,7,8,9,10,14,16,20,21,0,1,2,3,4,5,6,7,9,10,11,13,14,15,16,17,19,20,21],"categories_nodes":[1,2],"categories_segments":[0,14],"categories_sizes":[14,19],"default_left":[0,1,1,0,0,0,0,0,0,0,0,0,0,0,0,0,0,0,0],"id":24,"left_children":[1,3,5,7,9,-1,11,-1,13,-1,-1,15,17,-1,-1,-1,-1,-1,-1],"loss_changes":[2.418555E1,8.119291E0,6.314041E0,3.5316274E0,4.8803043E-1,0E0,1.7777301E0,0E0,1.3482726E0,0E0,0E0,6.6924757E-1,6.809616E-1,0E0,0E0,0E0,0E0,0E0,0E0],"parents":[2147483647,0,0,1,1,2,2,3,3,4,4,6,6,8,8,11,11,12,12],"right_children":[2,4,6,8,10,-1,12,-1,14,-1,-1,16,18,-1,-1,-1,-1,-1,-1],"split_conditions":[2.4E1,1E-45,1E-45,2.56E-1,5E-1,9.266303E-3,2.7E1,-3.8348425E-3,8E0,-6.9832853E-3,-0E0,3E0,3.4E1,-0E0,3.5015806E-3,-2.5000656E-3,-0E0,3.2858273E-3,-0E0],"split_indices":[14,1,1,2,2,0,14,0,10,0,0,31,32,0,0,0,0,0,0],"split_type":[0,1,1,0,0,0,0,0,0,0,0,0,0,0,0,0,0,0,0],"sum_hessian":[9.8498856E1,5.1709213E1,4.678964E1,2.6518337E1,2.5190878E1,1.9694378E1,2.709526E1,4.7361417E0,2.1782194E1,2.369632E1,1.4945577E0,8.407543E0,1.8687717E1,5.6977506E0,1.6084444E1,5.212079E0,3.1954646E0,1.6448114E1,2.239602E0],"tree_param":{"num_deleted":"0","num_feature":"38","num_nodes":"19","size_leaf_vector":"1"}},{"base_weights":[-7.253146E-2,4.9949664E-1,-5.031457E-1,-1.3010515E-1,7.445027E-1,2.669947E-2,-7.006002E-1,5.706521E-4,-3.1712627E-1,-0E0,7.86135E-1,-1.9732047E-2,1.878779E-1,-0E0,-7.7520525E-1,-3.938051E-3,-0E0,-0E0,8.159987E-3,-0E0,-1.527714E-3,2.9845838E-3,-0E0,-8.092424E-3,-0E0],"categories":[0,1,2,3,4,6,7,8,9,10,11,12,13,14,15,16,17,18,22,25,28,29],"categories_nodes":[2],"categories_segments":[0],"categories_sizes":[22],"default_left":[0,0,1,0,0,0,0,0,0,0,0,0,0,0,0,0,0,0,0,0,0,0,0,0,0],"id":25,"left_children":[1,3,5,7,9,11,13,-1,15,-1,17,19,21,-1,23,-1,-1,-1,-1,-1,-1,-1,-1,-1,-1],"loss_changes":[2.6356445E1,8.882594E0,8.022701E0,1.2688653E0,1.3470421E0,5.318755E-1,4.0082493E0,0E0,4.792633E-1,0E0,1.7107964E-1,2.9611444E-1,6.2799376E-1,0E0,1.3594341E0,0E0,0E0,0E0,0E0,0E0,0E0,0E0,0E0,0E0,0E0],"parents":[2147483647,0,0,1,1,2,2,3,3,4,4,5,5,6,6,8,8,10,10,11,11,12,12,14,14],"right_children":[2,4,6,8,10,12,14,-1,16,-1,18,20,22,-1,24,-1,-1,-1,-1,-1,-1,-1,-1,-1,-1],"split_conditions":[1.9E1,1.9E1,1E-45,1.2E1,1.4E1,1.7E1,2E0,5.706521E-4,1.7E1,-0E0,8E0,2.1E1,1.7E1,-0E0,2.8E1,-3.938051E-3,-0E0,-0E0,8.159987E-3,-0E0,-1.527714E-3,2.9845838E-3,-0E0,-8.092424E-3,-0E0],"split_indices":[33,14,0,33,21,15,6,0,33,0,22,33,21,0,4,0,0,0,0,0,0,0,0,0,0],"split_type":[0,0,1,0,0,0,0,0,0,0,0,0,0,0,0,0,0,0,0,0,0,0,0,0,0],"sum_hessian":[9.04034E1,3.626832E1,5.4135075E1,8.950465E0,2.7317854E1,1.3872422E1,4.0262653E1,1.9764336E0,6.9740314E0,1.4826573E0,2.5835196E1,6.723162E0,7.1492596E0,2.20922E0,3.8053436E1,4.7305503E0,2.2434814E0,2.1887019E0,2.3646494E1,1.9867235E0,4.7364388E0,4.932323E0,2.2169368E0,3.6320248E1,1.7331861E0],"tree_param":{"num_deleted":"0","num_feature":"38","num_nodes":"25","size_leaf_vector":"1"}},{"base_weights":[1.5614044E-3,5.282783E-1,-4.5441875E-1,-0E0,6.604799E-1,-4.519854E-2,-7.812184E-1,1.519036E-3,-1.5803231E-1,6.996194E-1,-0E0,-3.0069003E-1,2.7298522E-1,-8.2839656E-1,-0E0,-0E0,-2.298315E-3,7.425125E-3,-0E0,-5.335748E-3,-0E0,3.6248346E-3,-0E0,-0E0,-8.727367E-3],"categories":[2,5,8,10,17,20,0,2,3,0,1,2,3,4,5,6,7],"categories_nodes":[2,9,12],"categories_segments":[0,6,9],"categories_sizes":[6,3,8],"default_left":[0,0,1,0,0,0,0,0,0,1,0,0,1,0,0,0,0,0,0,0,0,0,0,0,0],"id":26,"left_children":[1,3,5,7,9,11,13,-1,15,17,-1,19,21,23,-1,-1,-1,-1,-1,-1,-1,-1,-1,-1,-1],"loss_changes":[2.6308584E1,4.2584763E0,5.5952063E0,6.194044E-1,1.2339745E0,3.691354E0,1.2838707E0,0E0,3.5055596E-1,2.530079E-1,0E0,2.9551997E0,6.462163E-1,8.8669777E-1,0E0,0E0,0E0,0E0,0E0,0E0,0E0,0E0,0E0,0E0,0E0],"parents":[2147483647,0,0,1,1,2,2,3,3,4,4,5,5,6,6,8,8,9,9,11,11,12,12,13,13],"right_children":[2,4,6,8,10,12,14,-1,16,18,-1,20,22,24,-1,-1,-1,-1,-1,-1,-1,-1,-1,-1,-1],"split_conditions":[2E1,-1E0,1E-45,1E1,3E1,6.1E-1,2.9E1,1.519036E-3,1E1,1E-45,-0E0,2E1,1E-45,4E0,-0E0,-0E0,-2.298315E-3,7.425125E-3,-0E0,-5.335748E-3,-0E0,3.6248346E-3,-0E0,-0E0,-8.727367E-3],"split_indices":[33,16,1,33,24,2,11,0,8,1,0,11,1,11,0,0,0,0,0,0,0,0,0,0,0],"split_type":[0,0,1,0,0,0,0,0,0,1,0,0,1,0,0,0,0,0,0,0,0,0,0,0,0],"sum_hessian":[9.25292E1,4.43663E1,4.81629E1,9.175401E0,3.51909E1,2.8246527E1,1.9916372E1,1.9716482E0,7.2037525E0,3.2992832E1,2.1980667E0,1.9403025E1,8.843502E0,1.867592E1,1.2404501E0,1.4844515E0,5.7193007E0,2.8829992E1,4.1628404E0,1.0946022E1,8.457004E0,6.3844576E0,2.4590442E0,1.4973872E0,1.7178534E1],"tree_param":{"num_deleted":"0","num_feature":"38","num_nodes":"25","size_leaf_vector":"1"}},{"base_weights":[-9.5329694E-2,-5.224676E-1,3.417136E-1,-6.133216E-1,2.701235E-2,5.3965366E-1,-0E0,-0E0,-6.890208E-1,-0E0,1.0713722E-3,-0E0,6.4481235E-1,1.1237454E-1,-2.5805791E-3,-0E0,-4.532376E-5,-0E0,-7.151713E-3,-2.87428E-4,-0E0,7.0592407E-3,-0E0,-1.773839E-4,2.5409714E-3],"categories":[0],"categories_nodes":[12],"categories_segments":[0],"categories_sizes":[1],"default_left":[0,0,0,0,0,0,0,0,0,0,0,0,1,0,0,0,0,0,0,0,0,0,0,0,0],"id":27,"left_children":[1,3,5,7,9,11,13,15,17,-1,-1,19,21,23,-1,-1,-1,-1,-1,-1,-1,-1,-1,-1,-1],"loss_changes":[2.0965916E1,4.174535E0,3.98552E0,2.0230408E0,1.185293E-1,2.8279934E0,1.1073067E0,2.4490725E-4,6.711693E-1,0E0,0E0,8.001705E-3,1.6101751E0,9.199257E-1,0E0,0E0,0E0,0E0,0E0,0E0,0E0,0E0,0E0,0E0,0E0],"parents":[2147483647,0,0,1,1,2,2,3,3,4,4,5,5,6,6,7,7,8,8,11,11,12,12,13,13],"right_children":[2,4,6,8,10,12,14,16,18,-1,-1,20,22,24,-1,-1,-1,-1,-1,-1,-1,-1,-1,-1,-1],"split_conditions":[1.6E1,3E1,1.9E1,6E0,5E0,6E0,2.3E1,1.2E1,3E0,-0E0,1.0713722E-3,1.1E1,1E-45,1.1E1,-2.5805791E-3,-0E0,-4.532376E-5,-0E0,-7.151713E-3,-2.87428E-4,-0E0,7.0592407E-3,-0E0,-1.773839E-4,2.5409714E-3],"split_indices":[23,15,7,6,26,25,29,29,7,0,0,6,0,26,0,0,0,0,0,0,0,0,0,0,0],"split_type":[0,0,0,0,0,0,0,0,0,0,0,0,1,0,0,0,0,0,0,0,0,0,0,0,0],"sum_hessian":[9.433191E1,4.921034E1,4.512157E1,4.453394E1,4.6764007E0,2.68648E1,1.8256771E1,6.689429E0,3.784451E1,1.731558E0,2.9448426E0,3.7028215E0,2.3161978E1,1.4047817E1,4.208954E0,2.96741E0,3.7220187E0,1.993466E0,3.5851044E1,1.4855512E0,2.2172704E0,2.1198162E1,1.9638164E0,3.70652E0,1.0341297E1],"tree_param":{"num_deleted":"0","num_feature":"38","num_nodes":"25","size_leaf_vector":"1"}},{"base_weights":[-0E0,-2.6425314E-1,5.268938E-1,-4.4295123E-1,2.1865326E-1,7.368693E-1,-1.3642953E-1,-5.3654325E-1,-0E0,-0E0,3.378285E-1,7.587453E-3,-0E0,-2.9006891E-3,-0E0,-5.496359E-3,-0E0,-1.6047506E-4,1.1032269E-3,-0E0,-8.073865E-4,3.7274426E-3,-0E0],"categories":[],"categories_nodes":[],"categories_segments":[],"categories_sizes":[],"default_left":[0,0,0,0,0,0,0,0,0,0,0,0,0,0,0,0,0,0,0,0,0,0,0],"id":28,"left_children":[1,3,5,7,9,11,13,15,17,19,21,-1,-1,-1,-1,-1,-1,-1,-1,-1,-1,-1,-1],"loss_changes":[1.53916E1,7.379639E0,7.2558184E0,2.933879E0,1.0987134E0,3.3918762E-1,7.2915226E-1,1.0758877E-1,1.3912758E-1,6.4764075E-2,2.2656083E-1,0E0,0E0,0E0,0E0,0E0,0E0,0E0,0E0,0E0,0E0,0E0,0E0],"parents":[2147483647,0,0,1,1,2,2,3,3,4,4,5,5,6,6,7,7,8,8,9,9,10,10],"right_children":[2,4,6,8,10,12,14,16,18,20,22,-1,-1,-1,-1,-1,-1,-1,-1,-1,-1,-1,-1],"split_conditions":[2.1E1,2.8E1,2.5E1,2.6E1,7E0,3E1,1.7E1,5E0,2.4E1,4E0,2.6E1,7.587453E-3,-0E0,-2.9006891E-3,-0E0,-5.496359E-3,-0E0,-1.6047506E-4,1.1032269E-3,-0E0,-8.073865E-4,3.7274426E-3,-0E0],"split_indices":[21,14,7,22,22,10,15,16,14,16,22,0,0,0,0,0,0,0,0,0,0,0,0],"split_type":[0,0,0,0,0,0,0,0,0,0,0,0,0,0,0,0,0,0,0,0,0,0,0],"sum_hessian":[9.226928E1,6.2915245E1,2.9354036E1,4.944012E1,1.34751215E1,2.3895763E1,5.4582744E0,4.1276417E1,8.163706E0,2.9682024E0,1.0506919E1,2.2660864E1,1.2348986E0,3.4873557E0,1.9709189E0,3.930352E1,1.9728963E0,5.2165995E0,2.947106E0,1.2331263E0,1.7350762E0,8.797085E0,1.7098342E0],"tree_param":{"num_deleted":"0","num_feature":"38","num_nodes":"23","size_leaf_vector":"1"}},{"base_weights":[-8.504505E-2,-3.5912237E-1,2.4924004E-1,2.355371E-2,-4.632676E-1,-3.2056952E-1,5.082158E-1,-0E0,1.9690224E-3,-0E0,-5.6362605E-1,-5.1865053E-1,6.456064E-4,-0E0,6.5134984E-1,-1.1265257E-3,-0E0,-7.5332835E-5,1.0906104E-3,-6.2177144E-3,-0E0,-5.7110703E-3,-0E0,-1.2968188E-3,6.498355E-4,-0E0,6.989948E-3],"categories":[],"categories_nodes":[],"categories_segments":[],"categories_sizes":[],"default_left":[0,0,0,0,0,0,0,0,0,0,0,0,0,0,0,0,0,0,0,0,0,0,0,0,0,0,0],"id":29,"left_children":[1,3,5,7,9,11,13,15,-1,17,19,21,-1,23,25,-1,-1,-1,-1,-1,-1,-1,-1,-1,-1,-1,-1],"loss_changes":[1.007069E1,3.4129524E0,8.555854E0,4.2271367E-1,3.2172213E0,2.4879289E0,3.3102903E0,1.5733595E-1,0E0,1.5728156E-1,1.0398102E0,4.962592E-1,0E0,2.5403482E-1,7.7882004E-1,0E0,0E0,0E0,0E0,0E0,0E0,0E0,0E0,0E0,0E0,0E0,0E0],"parents":[2147483647,0,0,1,1,2,2,3,3,4,4,5,5,6,6,7,7,9,9,10,10,11,11,13,13,14,14],"right_children":[2,4,6,8,10,12,14,16,-1,18,20,22,-1,24,26,-1,-1,-1,-1,-1,-1,-1,-1,-1,-1,-1,-1],"split_conditions":[1.8E1,6E0,-1E0,1.6E1,4E0,2.4E1,7E0,2.6E1,1.9690224E-3,-2E0,3E0,2.2E1,6.456064E-4,1.7E1,9E0,-1.1265257E-3,-0E0,-7.5332835E-5,1.0906104E-3,-6.2177144E-3,-0E0,-5.7110703E-3,-0E0,-1.2968188E-3,6.498355E-4,-0E0,6.989948E-3],"split_indices":[30,3,16,28,30,27,7,29,0,17,17,4,0,27,28,0,0,0,0,0,0,0,0,0,0,0,0],"split_type":[0,0,0,0,0,0,0,0,0,0,0,0,0,0,0,0,0,0,0,0,0,0,0,0,0,0,0],"sum_hessian":[9.130849E1,5.3125244E1,3.8183243E1,8.614231E0,4.4511013E1,8.908779E0,2.9274466E1,5.6706576E0,2.9435737E0,6.9726844E0,3.7538326E1,7.434996E0,1.473783E0,6.857812E0,2.2416653E1,4.197831E0,1.4728266E0,1.9980838E0,4.974601E0,3.207344E1,5.4648876E0,6.2162404E0,1.2187557E0,4.1720605E0,2.6857514E0,2.4375422E0,1.997911E1],"tree_param":{"num_deleted":"0","num_feature":"38","num_nodes":"27","size_leaf_vector":"1"}},{"base_weights":[-4.196253E-2,-4.156285E-1,3.103123E-1,7.6531763E-3,-6.6681445E-1,4.5162556E-1,-1.1651022E-2,-8.453503E-2,2.0704244E-1,-0E0,-7.1908087E-1,5.0155276E-1,-0E0,-1.5001248E-1,2.8149543E-2,-0E0,-2.058082E-3,-0E0,2.5569568E-3,-0E0,-8.03973E-3,6.126824E-3,-0E0,-2.7188659E-3,-0E0,1.5167226E-3,-0E0],"categories":[],"categories_nodes":[],"categories_segments":[],"categories_sizes":[],"default_left":[0,0,0,0,0,0,0,0,0,0,0,0,0,0,0,0,0,0,0,0,0,0,0,0,0,0,0],"id":30,"left_children":[1,3,5,7,9,11,13,15,17,-1,19,21,-1,23,25,-1,-1,-1,-1,-1,-1,-1,-1,-1,-1,-1,-1],"loss_changes":[1.4945965E1,7.38688E0,3.4447937E0,8.7107575E-1,1.3872871E0,1.678112E0,3.916999E-1,3.9500654E-1,2.992636E-1,0E0,1.0920849E0,2.0324888E0,0E0,6.981634E-1,2.2476235E-1,0E0,0E0,0E0,0E0,0E0,0E0,0E0,0E0,0E0,0E0,0E0,0E0],"parents":[2147483647,0,0,1,1,2,2,3,3,4,4,5,5,6,6,7,7,8,8,10,10,11,11,13,13,14,14],"right_children":[2,4,6,8,10,12,14,16,18,-1,20,22,-1,24,26,-1,-1,-1,-1,-1,-1,-1,-1,-1,-1,-1,-1],"split_conditions":[5.37E-1,2.2E1,2.8E1,4.15E-1,-2E0,3E1,1.8E1,1.8E1,-9E0,-0E0,9E0,4E0,-0E0,6.34E-1,1.5E1,-0E0,-2.058082E-3,-0E0,2.5569568E-3,-0E0,-8.03973E-3,6.126824E-3,-0E0,-2.7188659E-3,-0E0,1.5167226E-3,-0E0],"split_indices":[2,32,32,2,35,25,9,29,35,0,10,16,0,2,29,0,0,0,0,0,0,0,0,0,0,0,0],"split_type":[0,0,0,0,0,0,0,0,0,0,0,0,0,0,0,0,0,0,0,0,0,0,0,0,0,0,0],"sum_hessian":[9.570805E1,4.8483345E1,4.722471E1,1.8051725E1,3.043162E1,3.484181E1,1.2382901E1,8.715093E0,9.336632E0,2.7288404E0,2.770278E1,3.3370052E1,1.4717554E0,8.919459E0,3.4634418E0,4.7356544E0,3.979438E0,1.4614681E0,7.8751636E0,5.492159E0,2.221062E1,2.5072048E1,8.298004E0,6.456134E0,2.4633255E0,1.972127E0,1.4913149E0],"tree_param":{"num_deleted":"0","num_feature":"38","num_nodes":"27","size_leaf_vector":"1"}},{"base_weights":[-0E0,5.899059E-1,-2.7436393E-1,7.112603E-1,-0E0,8.9428965E-3,-5.4141617E-1,-0E0,7.6041543E-3,2.599818E-4,-1.2513147E-3,2.6744935E-1,-1.4584135E-1,-5.6452663E-3,-0E0,3.1850871E-3,-0E0,-0E0,-2.8591354E-3],"categories":[0,1,2,3,4,5,6,7,8,9,10,11],"categories_nodes":[5],"categories_segments":[0],"categories_sizes":[12],"default_left":[0,0,0,0,0,1,0,0,0,0,0,0,0,0,0,0,0,0,0],"id":31,"left_children":[1,3,5,7,9,11,13,-1,-1,-1,-1,15,17,-1,-1,-1,-1,-1,-1],"loss_changes":[1.6117336E1,2.9834003E0,6.522619E0,9.7256565E-1,1.737236E-1,2.130799E0,4.026518E-1,0E0,0E0,0E0,0E0,5.4495704E-1,8.896911E-1,0E0,0E0,0E0,0E0,0E0,0E0],"parents":[2147483647,0,0,1,1,2,2,3,3,4,4,5,5,6,6,11,11,12,12],"right_children":[2,4,6,8,10,12,14,-1,-1,-1,-1,16,18,-1,-1,-1,-1,-1,-1],"split_conditions":[1.4E1,2.5E1,1.5E1,-2E0,1.7E1,1E-45,6E0,-0E0,7.6041543E-3,2.599818E-4,-1.2513147E-3,6E0,2.5E1,-5.6452663E-3,-0E0,3.1850871E-3,-0E0,-0E0,-2.8591354E-3],"split_indices":[33,5,5,17,29,1,35,0,0,0,0,17,32,0,0,0,0,0,0],"split_type":[0,0,0,0,0,1,0,0,0,0,0,0,0,0,0,0,0,0,0],"sum_hessian":[8.603651E1,2.262492E1,6.3411587E1,1.8900951E1,3.723967E0,3.0981054E1,3.2430534E1,1.7085322E0,1.719242E1,1.2363485E0,2.4876187E0,1.4206769E1,1.6774284E1,3.0435442E1,1.9950932E0,1.2970435E1,1.2363338E0,7.592678E0,9.181607E0],"tree_param":{"num_deleted":"0","num_feature":"38","num_nodes":"19","size_leaf_vector":"1"}},{"base_weights":[1.9271916E-2,-5.12533E-1,2.6893353E-1,-6.2941253E-1,-0E0,5.004492E-1,-0E0,-0E0,-7.308827E-1,9.097929E-4,-0E0,-0E0,5.927203E-1,-1.5401989E-1,4.6217874E-2,-7.85225E-3,-0E0,8.7241526E-4,-7.5651676E-4,-0E0,6.089066E-3,-0E0,-2.5969553E-3,-6.0808703E-5,1.9168524E-3],"categories":[],"categories_nodes":[],"categories_segments":[],"categories_sizes":[],"default_left":[0,0,0,0,0,0,0,0,0,0,0,0,0,0,0,0,0,0,0,0,0,0,0,0,0],"id":32,"left_children":[1,3,5,7,9,11,13,-1,15,-1,-1,17,19,21,23,-1,-1,-1,-1,-1,-1,-1,-1,-1,-1],"loss_changes":[1.4396272E1,2.9906044E0,5.766485E0,2.494176E0,8.6199746E-2,1.944294E0,5.401823E-1,0E0,9.6771145E-1,0E0,0E0,1.6148412E-1,2.8799725E-1,5.443709E-1,6.0135955E-1,0E0,0E0,0E0,0E0,0E0,0E0,0E0,0E0,0E0,0E0],"parents":[2147483647,0,0,1,1,2,2,3,3,4,4,5,5,6,6,8,8,11,11,12,12,13,13,14,14],"right_children":[2,4,6,8,10,12,14,-1,16,-1,-1,18,20,22,24,-1,-1,-1,-1,-1,-1,-1,-1,-1,-1],"split_conditions":[1.9E1,2.6E1,5.37E-1,5E0,2.9E1,9E0,6E0,-0E0,2.9E1,9.097929E-4,-0E0,1.8E1,-2E0,2.5E1,2.5E1,-7.85225E-3,-0E0,8.7241526E-4,-7.5651676E-4,-0E0,6.089066E-3,-0E0,-2.5969553E-3,-6.0808703E-5,1.9168524E-3],"split_indices":[14,23,20,25,23,28,23,0,28,0,0,11,16,14,14,0,0,0,0,0,0,0,0,0,0],"split_type":[0,0,0,0,0,0,0,0,0,0,0,0,0,0,0,0,0,0,0,0,0,0,0,0,0],"sum_hessian":[9.53857E1,2.5156038E1,7.022966E1,2.146705E1,3.688988E0,3.747362E1,3.2756035E1,2.9965937E0,1.8470457E1,2.214079E0,1.474909E0,7.5792246E0,2.9894398E1,1.1960278E1,2.0795757E1,1.647617E1,1.9942868E0,4.643206E0,2.9360182E0,1.2216202E0,2.8672777E1,4.997337E0,6.9629407E0,1.0962816E1,9.832942E0],"tree_param":{"num_deleted":"0","num_feature":"38","num_nodes":"25","size_leaf_vector":"1"}},{"base_weights":[-1.3756511E-2,-4.7273913E-1,4.4656864E-1,-0E0,-5.3007823E-1,7.483959E-3,5.5563413E-2,-0E0,1.4579864E-4,-0E0,-5.766183E-1,-7.315826E-2,1.9540098E-1,-0E0,-6.3297013E-3,-1.826047E-3,-0E0,-0E0,2.367027E-3],"categories":[0,1,2,3,4,5,7,8,9,10,11,12,13,14,15,16,17,19,20,0,1,2,3,4,5,6,7,8,9,10,11,12,13,14,15,16,17,18,19,20,21,22,23,24,25],"categories_nodes":[2,10],"categories_segments":[0,19],"categories_sizes":[19,26],"default_left":[0,0,1,0,0,0,0,0,0,0,1,0,0,0,0,0,0,0,0],"id":33,"left_children":[1,3,5,7,9,-1,11,-1,-1,-1,13,15,17,-1,-1,-1,-1,-1,-1],"loss_changes":[2.1836428E1,2.3327103E0,3.8843374E0,2.003E-3,1.4740477E0,0E0,9.606973E-1,0E0,0E0,0E0,2.1509104E0,3.455147E-1,3.881871E-1,0E0,0E0,0E0,0E0,0E0,0E0],"parents":[2147483647,0,0,1,1,2,2,3,3,4,4,6,6,10,10,11,11,12,12],"right_children":[2,4,6,8,10,-1,12,-1,-1,-1,14,16,18,-1,-1,-1,-1,-1,-1],"split_conditions":[2.4E1,-8E0,1E-45,1.9E1,3E0,7.483959E-3,2.7E1,-0E0,1.4579864E-4,-0E0,1E-45,1.8E1,2E0,-0E0,-6.3297013E-3,-1.826047E-3,-0E0,-0E0,2.367027E-3],"split_indices":[14,35,1,10,7,0,14,0,0,0,1,27,25,0,0,0,0,0,0],"split_type":[0,0,1,0,0,0,0,0,0,0,1,0,0,0,0,0,0,0,0],"sum_hessian":[8.671132E1,4.5483795E1,4.1227528E1,2.6839418E0,4.2799854E1,1.6150475E1,2.5077051E1,1.4612705E0,1.2226714E0,3.467003E0,3.933285E1,7.6463E0,1.7430752E1,2.718192E0,3.661466E1,4.7054715E0,2.9408283E0,1.2357272E0,1.6195024E1],"tree_param":{"num_deleted":"0","num_feature":"38","num_nodes":"19","size_leaf_vector":"1"}},{"base_weights":[-2.8763706E-2,3.5427132E-1,-5.9328103E-1,6.3881904E-1,-1.405916E-1,-7.255097E-1,1.4148547E-3,6.7607546E-1,-0E0,3.0595195E-2,-3.6609787E-1,-0E0,-7.662035E-3,-0E0,7.262103E-3,-0E0,1.5122251E-3,-4.8430306E-3,-0E0],"categories":[0,1,2,3,4,6,18,22,25,28,29],"categories_nodes":[0],"categories_segments":[0],"categories_sizes":[11],"default_left":[1,0,0,0,0,0,0,0,0,0,0,0,0,0,0,0,0,0,0],"id":34,"left_children":[1,3,5,7,9,11,-1,13,-1,15,17,-1,-1,-1,-1,-1,-1,-1,-1],"loss_changes":[2.3379393E1,1.0375047E1,6.3593073E0,1.0090008E0,1.7882082E0,1.2222176E0,0E0,7.9517555E-1,0E0,2.9564494E-1,1.3158126E0,0E0,0E0,0E0,0E0,0E0,0E0,0E0,0E0],"parents":[2147483647,0,0,1,1,2,2,3,3,4,4,5,5,7,7,9,9,10,10],"right_children":[2,4,6,8,10,12,-1,14,-1,16,18,-1,-1,-1,-1,-1,-1,-1,-1],"split_conditions":[1E-45,2.1E1,2.7E1,3E1,1.4E1,4E0,1.4148547E-3,4E0,-0E0,1.2E1,1.5E1,-0E0,-7.662035E-3,-0E0,7.262103E-3,-0E0,1.5122251E-3,-4.8430306E-3,-0E0],"split_indices":[0,33,23,23,6,5,0,29,0,29,30,0,0,0,0,0,0,0,0],"split_type":[1,0,0,0,0,0,0,0,0,0,0,0,0,0,0,0,0,0,0],"sum_hessian":[8.9741486E1,5.3173462E1,3.656802E1,3.4812374E1,1.8361088E1,3.338526E1,3.182758E0,3.240994E1,2.4024348E0,9.424946E0,8.936142E0,2.218064E0,3.1167198E1,3.9057891E0,2.850415E1,3.9753191E0,5.4496264E0,7.2019944E0,1.7341474E0],"tree_param":{"num_deleted":"0","num_feature":"38","num_nodes":"19","size_leaf_vector":"1"}},{"base_weights":[4.4341758E-2,-2.5535482E-1,5.446902E-1,1.5497777E-1,-5.332988E-1,6.616919E-1,-3.752773E-2,-1.8728216E-1,3.7016195E-1,-5.9271663E-1,-0E0,7.3546296E-1,-0E0,-1.2201399E-3,-0E0,-2.3118218E-3,-0E0,-0E0,4.3000774E-3,-6.5077255E-3,-0E0,-3.5028774E-4,4.944049E-4,-0E0,7.5345025E-3,-0E0,5.1343936E-4],"categories":[],"categories_nodes":[],"categories_segments":[],"categories_sizes":[],"default_left":[0,0,0,0,0,0,0,0,0,0,0,0,0,0,0,0,0,0,0,0,0,0,0,0,0,0,0],"id":35,"left_children":[1,3,5,7,9,11,13,15,17,19,21,23,25,-1,-1,-1,-1,-1,-1,-1,-1,-1,-1,-1,-1,-1,-1],"loss_changes":[1.5903562E1,8.53291E0,4.214326E0,3.039279E0,1.4129906E0,9.286041E-1,1.3527407E-1,1.7075834E-1,6.8471336E-1,1.2560883E0,3.7348002E-2,1.9529343E-2,3.0010985E-2,0E0,0E0,0E0,0E0,0E0,0E0,0E0,0E0,0E0,0E0,0E0,0E0,0E0,0E0],"parents":[2147483647,0,0,1,1,2,2,3,3,4,4,5,5,6,6,7,7,8,8,9,9,10,10,11,11,12,12],"right_children":[2,4,6,8,10,12,14,16,18,20,22,24,26,-1,-1,-1,-1,-1,-1,-1,-1,-1,-1,-1,-1,-1,-1],"split_conditions":[2.6E1,1.9E1,6.34E-1,1E1,5.85E-1,2.5E1,2.9E1,1E0,1.4E1,2.8E1,1.3E1,2E0,4.51E-1,-1.2201399E-3,-0E0,-2.3118218E-3,-0E0,-0E0,4.3000774E-3,-6.5077255E-3,-0E0,-3.5028774E-4,4.944049E-4,-0E0,7.5345025E-3,-0E0,5.1343936E-4],"split_indices":[14,33,20,6,2,4,14,34,14,11,26,6,20,0,0,0,0,0,0,0,0,0,0,0,0,0,0],"split_type":[0,0,0,0,0,0,0,0,0,0,0,0,0,0,0,0,0,0,0,0,0,0,0,0,0,0,0],"sum_hessian":[8.639222E1,5.404091E1,3.235131E1,2.0382313E1,3.3658596E1,2.8866217E1,3.485093E0,4.690601E0,1.5691711E1,2.9708914E1,3.9496822E0,2.3520008E1,5.34621E0,1.9918661E0,1.493227E0,3.4547613E0,1.2358396E0,2.4844115E0,1.3207299E1,2.6212778E1,3.496137E0,1.9811475E0,1.9685347E0,1.4620389E0,2.2057968E1,2.1620243E0,3.1841855E0],"tree_param":{"num_deleted":"0","num_feature":"38","num_nodes":"27","size_leaf_vector":"1"}},{"base_weights":[-1.595102E-2,-4.4874105E-1,4.3812025E-1,1.1487119E-1,-5.927583E-1,-2.2231582E-1,6.449151E-1,3.1292182E-3,-6.844676E-4,-6.1822413E-3,-0E0,-3.047024E-1,-0E0,7.0095253E-3,-0E0,-3.958226E-3,-0E0,-5.190123E-4,6.20126E-4],"categories":[],"categories_nodes":[],"categories_segments":[],"categories_sizes":[],"default_left":[0,0,0,0,0,0,0,0,0,0,0,0,0,0,0,0,0,0,0],"id":36,"left_children":[1,3,5,7,9,11,13,-1,-1,-1,-1,15,-1,-1,17,-1,-1,-1,-1],"loss_changes":[2.049917E1,6.015649E0,8.6778555E0,1.2211349E0,2.516098E-1,5.305912E-1,1.4500332E0,0E0,0E0,0E0,0E0,6.563662E-1,0E0,0E0,6.453389E-2,0E0,0E0,0E0,0E0],"parents":[2147483647,0,0,1,1,2,2,3,3,4,4,5,5,6,6,11,11,14,14],"right_children":[2,4,6,8,10,12,14,-1,-1,-1,-1,16,-1,-1,18,-1,-1,-1,-1],"split_conditions":[5E-1,1.4E1,6E0,2.8E1,2.9E1,1.8E1,2.7E1,3.1292182E-3,-6.844676E-4,-6.1822413E-3,-0E0,4E0,-0E0,7.0095253E-3,1.7E1,-3.958226E-3,-0E0,-5.190123E-4,6.20126E-4],"split_indices":[2,32,23,3,11,7,11,0,0,0,0,23,0,0,28,0,0,0,0],"split_type":[0,0,0,0,0,0,0,0,0,0,0,0,0,0,0,0,0,0,0],"sum_hessian":[8.7800545E1,4.7258137E1,4.0542408E1,7.129414E0,4.0128723E1,7.2145596E0,3.3327847E1,5.88459E0,1.2448242E0,3.6887535E1,3.2411866E0,5.7206798E0,1.4938799E0,2.990461E1,3.4232388E0,4.238516E0,1.482164E0,1.9557322E0,1.4675066E0],"tree_param":{"num_deleted":"0","num_feature":"38","num_nodes":"19","size_leaf_vector":"1"}},{"base_weights":[1.7611067E-1,-1.05653524E-1,6.454666E-1,4.6890783E-3,-2.6453203E-1,-1.2001841E-2,8.2171386E-1,-5.56488E-1,-0E0,-2.0059594E-3,7.179914E-3,8.911732E-3,-0E0,-0E0,-5.9519433E-3,1.847875E-3,-1.5250237E-3,2.744155E-4,-0E0],"categories":[0,2,3,4,5,6,7,8,9,10,12,13,14,15,16,17,18,19,21,22,23,24,25,26,27,28,29],"categories_nodes":[1],"categories_segments":[0],"categories_sizes":[27],"default_left":[0,1,0,0,0,0,0,0,0,0,0,0,0,0,0,0,0,0,0],"id":37,"left_children":[1,3,5,-1,7,9,11,13,15,-1,17,-1,-1,-1,-1,-1,-1,-1,-1],"loss_changes":[1.4041176E1,6.358034E0,6.2190113E0,0E0,4.155826E0,4.490232E-1,2.2424202E0,2.9809666E-1,1.3183978E0,0E0,6.5434724E-3,0E0,0E0,0E0,0E0,0E0,0E0,0E0,0E0],"parents":[2147483647,0,0,1,1,2,2,4,4,5,5,6,6,7,7,8,8,10,10],"right_children":[2,4,6,-1,8,10,12,14,16,-1,18,-1,-1,-1,-1,-1,-1,-1,-1],"split_conditions":[2.1E1,1E-45,3.66E-1,4.6890783E-3,9E0,2.6E1,2.4E1,5E0,1.4E1,-2.0059594E-3,1.4E1,8.911732E-3,-0E0,-0E0,-5.9519433E-3,1.847875E-3,-1.5250237E-3,2.744155E-4,-0E0],"split_indices":[23,0,2,0,23,23,32,5,5,0,4,0,0,0,0,0,0,0,0],"split_type":[0,1,0,0,0,0,0,0,0,0,0,0,0,0,0,0,0,0,0],"sum_hessian":[8.558118E1,5.478537E1,3.0795809E1,5.674599E0,4.911077E1,5.726758E0,2.506905E1,1.8170134E1,3.0940636E1,2.994828E0,2.7319303E0,2.290861E1,2.16044E0,2.4767842E0,1.569335E1,1.1764095E1,1.917654E1,1.2377968E0,1.4941334E0],"tree_param":{"num_deleted":"0","num_feature":"38","num_nodes":"19","size_leaf_vector":"1"}},{"base_weights":[-1.2717952E-1,-4.3443534E-1,3.2857206E-1,-5.388745E-1,8.976054E-2,-6.450908E-2,5.358997E-1,-6.1700237E-1,-0E0,-0E0,1.5212445E-1,-2.208094E-1,2.2430069E-4,-0E0,5.8462054E-1,-7.0427917E-3,-0E0,5.322224E-4,-9.344497E-4,1.612001E-3,-0E0,-0E0,-2.925125E-3,6.2912926E-3,-0E0],"categories":[],"categories_nodes":[],"categories_segments":[],"categories_sizes":[],"default_left":[0,0,0,0,0,0,0,0,0,0,0,0,0,0,0,0,0,0,0,0,0,0,0,0,0],"id":38,"left_children":[1,3,5,7,9,11,13,15,17,-1,19,21,-1,-1,23,-1,-1,-1,-1,-1,-1,-1,-1,-1,-1],"loss_changes":[1.5344918E1,4.8922796E0,4.665424E0,2.2197266E0,1.9405682E-1,6.8957704E-1,9.923878E-1,1.6102428E0,1.399685E-1,0E0,6.935388E-3,4.0608805E-1,0E0,0E0,3.3686256E-1,0E0,0E0,0E0,0E0,0E0,0E0,0E0,0E0,0E0,0E0],"parents":[2147483647,0,0,1,1,2,2,3,3,4,4,5,5,6,6,7,7,8,8,10,10,11,11,14,14],"right_children":[2,4,6,8,10,12,14,16,18,-1,20,22,-1,-1,24,-1,-1,-1,-1,-1,-1,-1,-1,-1,-1],"split_conditions":[2.6E1,2.7E1,1.1E1,2.5E1,3.66E-1,3.1E1,5E0,2.1E1,4.51E-1,-0E0,2.2E1,1E1,2.2430069E-4,-0E0,2.8E1,-7.0427917E-3,-0E0,5.322224E-4,-9.344497E-4,1.612001E-3,-0E0,-0E0,-2.925125E-3,6.2912926E-3,-0E0],"split_indices":[14,23,30,22,2,14,28,23,2,0,9,9,0,0,32,0,0,0,0,0,0,0,0,0,0],"split_type":[0,0,0,0,0,0,0,0,0,0,0,0,0,0,0,0,0,0,0,0,0,0,0,0,0],"sum_hessian":[9.151052E1,5.7510395E1,3.4000126E1,5.094585E1,6.5645423E0,1.0360071E1,2.3640053E1,4.274628E1,8.199571E0,1.2386514E0,5.325891E0,7.4122834E0,2.947788E0,2.182238E0,2.1457815E1,3.414817E1,8.598112E0,4.4851193E0,3.714451E0,4.1126266E0,1.2132646E0,1.9698778E0,5.4424057E0,1.8260965E1,3.196851E0],"tree_param":{"num_deleted":"0","num_feature":"38","num_nodes":"25","size_leaf_vector":"1"}},{"base_weights":[-2.2030773E-2,2.997452E-1,-6.3716716E-1,-0E0,6.3638145E-1,-6.928047E-1,-0E0,-2.2630703E-1,1.8535118E-1,6.909665E-1,-0E0,-7.997429E-3,-0E0,-3.2396726E-3,-0E0,2.5033867E-3,-0E0,7.368925E-3,-0E0,-0E0,-1.0151623E-3],"categories":[],"categories_nodes":[],"categories_segments":[],"categories_sizes":[],"default_left":[0,0,0,0,0,0,0,0,0,0,0,0,0,0,0,0,0,0,0,0,0],"id":39,"left_children":[1,3,5,7,9,11,-1,13,15,17,-1,-1,19,-1,-1,-1,-1,-1,-1,-1,-1],"loss_changes":[2.1169992E1,7.9526925E0,2.1903353E0,2.1076918E0,1.5507603E0,1.8254852E0,0E0,8.8117826E-1,5.0708807E-1,9.107275E-1,0E0,0E0,1.1024713E-1,0E0,0E0,0E0,0E0,0E0,0E0,0E0,0E0],"parents":[2147483647,0,0,1,1,2,2,3,3,4,4,5,5,7,7,8,8,9,9,12,12],"right_children":[2,4,6,8,10,12,-1,14,16,18,-1,-1,20,-1,-1,-1,-1,-1,-1,-1,-1],"split_conditions":[2.2E1,1.8E1,2.9E1,6.1E-1,3E1,1E0,-0E0,2E1,2.3E1,2E0,-0E0,-7.997429E-3,2.7E1,-3.2396726E-3,-0E0,2.5033867E-3,-0E0,7.368925E-3,-0E0,-0E0,-1.0151623E-3],"split_indices":[3,30,30,2,22,16,0,6,9,35,0,0,32,0,0,0,0,0,0,0,0],"split_type":[0,0,0,0,0,0,0,0,0,0,0,0,0,0,0,0,0,0,0,0,0],"sum_hessian":[8.743212E1,5.802985E1,2.9402267E1,3.1899235E1,2.6130617E1,2.8168678E1,1.2335887E0,1.8393923E1,1.3505313E1,2.4168867E1,1.9617497E0,2.1946974E1,6.221704E0,1.3172845E1,5.221077E0,1.1790209E1,1.715104E0,2.1937067E1,2.2317991E0,3.7238588E0,2.4978452E0],"tree_param":{"num_deleted":"0","num_feature":"38","num_nodes":"21","size_leaf_vector":"1"}},{"base_weights":[-1.13777794E-1,2.477159E-1,-8.545961E-1,-2.3091274E-1,4.2620263E-1,-0E0,-9.15954E-3,-3.4738496E-1,-0E0,5.982635E-1,-5.9260963E-3,-0E0,-4.119732E-3,-1.889579E-4,5.7329447E-4,-0E0,6.1521274E-3,-1.9145726E-3,5.42127E-4],"categories":[0,2,5,6,8,11,20,21],"categories_nodes":[0],"categories_segments":[0],"categories_sizes":[8],"default_left":[1,0,0,0,0,0,0,0,0,0,0,0,0,0,0,0,0,0,0],"id":40,"left_children":[1,3,5,7,9,-1,-1,11,13,15,17,-1,-1,-1,-1,-1,-1,-1,-1],"loss_changes":[2.7768305E1,6.9064856E0,1.834137E0,6.5259135E-1,5.273389E0,0E0,0E0,4.1294003E-1,3.5678864E-2,4.17634E-1,5.867506E-1,0E0,0E0,0E0,0E0,0E0,0E0,0E0,0E0],"parents":[2147483647,0,0,1,1,2,2,3,3,4,4,7,7,8,8,9,9,10,10],"right_children":[2,4,6,8,10,-1,-1,12,14,16,18,-1,-1,-1,-1,-1,-1,-1,-1],"split_conditions":[1E-45,3.66E-1,3E0,4.88E-1,5.98E-1,-0E0,-9.15954E-3,2.93E-1,1.1E1,2E0,2.5E1,-0E0,-4.119732E-3,-1.889579E-4,5.7329447E-4,-0E0,6.1521274E-3,-1.9145726E-3,5.42127E-4],"split_indices":[1,2,6,20,20,0,0,20,23,6,14,0,0,0,0,0,0,0,0],"split_type":[1,0,0,0,0,0,0,0,0,0,0,0,0,0,0,0,0,0,0],"sum_hessian":[8.447561E1,5.8626335E1,2.584927E1,1.2226361E1,4.6399975E1,2.2228239E0,2.3626446E1,6.233149E0,5.9932127E0,3.4241665E1,1.2158312E1,1.7377989E0,4.4953504E0,4.7437286E0,1.249484E0,1.2029115E0,3.303875E1,6.734136E0,5.4241757E0],"tree_param":{"num_deleted":"0","num_feature":"38","num_nodes":"19","size_leaf_vector":"1"}},{"base_weights":[-0E0,-6.534831E-1,2.570373E-1,-0E0,-7.7235773E-3,6.870314E-1,-6.855498E-2,7.0527033E-3,-0E0,-2.66034E-1,2.2558543E-1,-0E0,-4.115218E-3,-0E0,2.8146082E-3],"categories":[],"categories_nodes":[],"categories_segments":[],"categories_sizes":[],"default_left":[0,0,0,0,0,0,0,0,0,0,0,0,0,0,0],"id":41,"left_children":[1,3,5,-1,-1,7,9,-1,-1,11,13,-1,-1,-1,-1],"loss_changes":[1.784721E1,3.4634504E0,1.3057308E1,0E0,0E0,3.7023163E-1,3.5520818E0,0E0,0E0,1.988584E0,4.9681735E-1,0E0,0E0,0E0,0E0],"parents":[2147483647,0,0,1,1,2,2,5,5,6,6,9,9,10,10],"right_children":[2,4,6,-1,-1,8,10,-1,-1,12,14,-1,-1,-1,-1],"split_conditions":[1.8E1,2.93E-1,4.88E-1,-0E0,-7.7235773E-3,3E1,2.9E1,7.0527033E-3,-0E0,1E1,-1E0,-0E0,-4.115218E-3,-0E0,2.8146082E-3],"split_indices":[14,20,20,0,0,11,14,0,0,29,36,0,0,0,0],"split_type":[0,0,0,0,0,0,0,0,0,0,0,0,0,0,0],"sum_hessian":[9.4428185E1,2.0957375E1,7.347081E1,2.4786701E0,1.8478704E1,3.038399E1,4.3086823E1,2.9158484E1,1.2255065E0,3.0316233E1,1.2770592E1,1.067726E1,1.9638971E1,1.2283373E0,1.1542254E1],"tree_param":{"num_deleted":"0","num_feature":"38","num_nodes":"15","size_leaf_vector":"1"}},{"base_weights":[-0E0,3.760076E-1,-5.628844E-1,5.340782E-1,-0E0,-0E0,-6.3577676E-1,-0E0,6.996978E-1,-1.2431762E-1,1.07798815E-1,-0E0,6.8396246E-3,-0E0,-6.980342E-1,3.0449352E-3,-2.1102747E-3,8.509072E-3,-0E0,-1.8870711E-3,-0E0,-0E0,1.870496E-3,3.0657873E-4,-0E0,-0E0,-7.5875446E-3],"categories":[0,1,2,3,4,5,6,7,8,9,20,0,1,2,3,4,5,6,7,8,9,10,11,12,13,14,15,16,17,18,19,20,21,22,23,24,25,26],"categories_nodes":[1,6],"categories_segments":[0,11],"categories_sizes":[11,27],"default_left":[0,1,0,0,0,0,1,0,0,0,0,0,0,0,0,0,0,0,0,0,0,0,0,0,0,0,0],"id":42,"left_children":[1,3,5,7,9,11,13,15,17,19,21,-1,23,-1,25,-1,-1,-1,-1,-1,-1,-1,-1,-1,-1,-1,-1],"loss_changes":[2.1901396E1,3.428008E0,1.8518381E0,3.114975E0,4.6665293E-1,5.3445576E-4,2.032239E0,1.8681324E0,1.8813353E0,2.249366E-1,4.3181986E-1,0E0,8.805342E-3,0E0,1.3815918E0,0E0,0E0,0E0,0E0,0E0,0E0,0E0,0E0,0E0,0E0,0E0,0E0],"parents":[2147483647,0,0,1,1,2,2,3,3,4,4,5,5,6,6,7,7,8,8,9,9,10,10,12,12,14,14],"right_children":[2,4,6,8,10,12,14,16,18,20,22,-1,24,-1,26,-1,-1,-1,-1,-1,-1,-1,-1,-1,-1,-1,-1],"split_conditions":[4E0,1E-45,-2E0,2.5E1,1E1,1.4E1,1E-45,1E1,1.3E1,3.1E1,-1E0,-0E0,2E1,-0E0,3E0,3.0449352E-3,-2.1102747E-3,8.509072E-3,-0E0,-1.8870711E-3,-0E0,-0E0,1.870496E-3,3.0657873E-4,-0E0,-0E0,-7.5875446E-3],"split_indices":[13,1,35,14,28,11,1,27,8,14,18,0,11,0,25,0,0,0,0,0,0,0,0,0,0,0,0],"split_type":[0,1,0,0,0,0,1,0,0,0,0,0,0,0,0,0,0,0,0,0,0,0,0,0,0,0,0],"sum_hessian":[8.670208E1,5.315601E1,3.354607E1,3.4229702E1,1.8926308E1,4.4423523E0,2.910372E1,1.1346539E1,2.2883165E1,6.4417295E0,1.2484578E1,1.2175889E0,3.2247636E0,2.1866462E0,2.6917072E1,4.92699E0,6.419548E0,1.5415911E1,7.467254E0,4.4711013E0,1.9706281E0,1.47241E0,1.1012168E1,1.7369591E0,1.4878045E0,2.9958706E0,2.3921202E1],"tree_param":{"num_deleted":"0","num_feature":"38","num_nodes":"27","size_leaf_vector":"1"}},{"base_weights":[-5.0366777E-3,6.7699426E-1,-3.5244685E-1,7.161485E-1,-0E0,-4.482136E-2,-7.7535266E-1,-0E0,7.556469E-1,-1.9215658E-1,3.8633123E-2,-8.977916E-3,-0E0,7.9525E-3,-0E0,-0E0,-2.4816166E-3,-5.476478E-4,1.8020773E-3,-1.2126139E-3,3.094524E-4],"categories":[0,1,2,4,5,7,8,9,10,11,12,14,15,16,17,19,20,21,22,25,26,2,4,5,14,20,21],"categories_nodes":[0,2],"categories_segments":[0,21],"categories_sizes":[21,6],"default_left":[1,0,1,0,0,0,0,0,0,0,0,0,0,0,0,0,0,0,0,0,0],"id":43,"left_children":[1,3,5,7,-1,9,11,-1,13,15,17,-1,19,-1,-1,-1,-1,-1,-1,-1,-1],"loss_changes":[2.5482166E1,1.1669712E0,7.8229237E0,6.84021E-1,0E0,1.0419557E0,1.8205624E0,0E0,7.176018E-1,6.2939763E-1,7.7024347E-1,0E0,1.673084E-1,0E0,0E0,0E0,0E0,0E0,0E0,0E0,0E0],"parents":[2147483647,0,0,1,1,2,2,3,3,5,5,6,6,8,8,9,9,10,10,12,12],"right_children":[2,4,6,8,-1,10,12,-1,14,16,18,-1,20,-1,-1,-1,-1,-1,-1,-1,-1],"split_conditions":[1E-45,2.9E1,1E-45,1.2E1,-0E0,2E1,2.3E1,-0E0,4E0,8E0,7E0,-8.977916E-3,2E0,7.9525E-3,-0E0,-0E0,-2.4816166E-3,-5.476478E-4,1.8020773E-3,-1.2126139E-3,3.094524E-4],"split_indices":[1,4,1,15,0,15,15,0,17,4,4,0,31,0,0,0,0,0,0,0,0],"split_type":[1,0,1,0,0,0,0,0,0,0,0,0,0,0,0,0,0,0,0,0,0],"sum_hessian":[9.382687E1,2.709608E1,6.673079E1,2.5617456E1,1.4786258E0,4.66184E1,2.0112389E1,2.245014E0,2.3372442E1,2.1661095E1,2.4957308E1,1.5175275E1,4.937113E0,2.1440838E1,1.9316034E0,1.7371106E0,1.9923983E1,9.5549965E0,1.540231E1,2.4844282E0,2.4526849E0],"tree_param":{"num_deleted":"0","num_feature":"38","num_nodes":"21","size_leaf_vector":"1"}},{"base_weights":[-0E0,6.9600385E-1,-2.346295E-1,7.241673E-3,-0E0,-6.079548E-1,1.721911E-1,-0E0,-6.7523074E-1,2.9895318E-1,-3.3345167E-3,9.5134205E-4,-6.3581934E-4,-0E0,-7.565516E-3,5.0628018E-3,-7.493967E-5,-1.6778274E-3,1.661793E-4],"categories":[0,1,2,4,5,6,7,8,9,10,11,12,13,14,15,16,17,19,20,21,22,23,24,25,26,0,1,2,3,4,5,6,7,8,9,0,1,2,3,4,5,6,7,8,9,12,0,1,2,3,4],"categories_nodes":[0,6,9,10],"categories_segments":[0,25,35,46],"categories_sizes":[25,10,11,5],"default_left":[1,0,0,0,0,0,1,0,0,1,1,0,0,0,0,0,0,0,0],"id":44,"left_children":[1,3,5,-1,-1,7,9,11,13,15,17,-1,-1,-1,-1,-1,-1,-1,-1],"loss_changes":[1.6038824E1,3.2464504E-1,1.3580025E1,0E0,0E0,2.085102E0,1.5153054E0,1.344578E-1,1.936697E0,2.9734018E0,3.8673094E-1,0E0,0E0,0E0,0E0,0E0,0E0,0E0,0E0],"parents":[2147483647,0,0,1,1,2,2,5,5,6,6,7,7,8,8,9,9,10,10],"right_children":[2,4,6,-1,-1,8,10,12,14,16,18,-1,-1,-1,-1,-1,-1,-1,-1],"split_conditions":[1E-45,2.9E1,5.37E-1,7.241673E-3,-0E0,-2E0,1E-45,4E0,7E0,1E-45,1E-45,9.5134205E-4,-6.3581934E-4,-0E0,-7.565516E-3,5.0628018E-3,-7.493967E-5,-1.6778274E-3,1.661793E-4],"split_indices":[1,3,2,0,0,34,1,13,7,0,1,0,0,0,0,0,0,0,0],"split_type":[1,0,0,0,0,0,1,0,0,1,1,0,0,0,0,0,0,0,0],"sum_hessian":[8.586682E1,1.604232E1,6.98245E1,1.4812438E1,1.2298816E0,3.6860725E1,3.2963776E1,3.9586115E0,3.2902115E1,2.2408724E1,1.0555055E1,2.2146018E0,1.7440099E0,4.9775105E0,2.7924604E1,1.4069331E1,8.339392E0,5.4142466E0,5.140808E0],"tree_param":{"num_deleted":"0","num_feature":"38","num_nodes":"19","size_leaf_vector":"1"}},{"base_weights":[-2.049481E-2,4.0649575E-1,-3.7803218E-1,-1.3487636E-1,6.2578595E-1,6.676017E-2,-5.7258826E-1,-0E0,-2.2315663E-1,-0E0,7.271302E-1,-1.4232065E-1,3.4900442E-1,-6.2732935E-1,-0E0,-2.572568E-3,-0E0,-0E0,7.482938E-3,-0E0,-1.9356024E-3,-0E0,4.6825227E-3,-6.465182E-3,-0E0,-5.3485984E-4,1.0222092E-4],"categories":[0,1,2,3,4,5,6,7,8,9,10,11,12,13,14,15,16,17,18,19,20,21],"categories_nodes":[2],"categories_segments":[0],"categories_sizes":[22],"default_left":[0,0,1,0,0,0,0,0,0,0,0,0,0,0,0,0,0,0,0,0,0,0,0,0,0,0,0],"id":45,"left_children":[1,3,5,7,9,11,13,-1,15,-1,17,19,21,23,25,-1,-1,-1,-1,-1,-1,-1,-1,-1,-1,-1,-1],"loss_changes":[1.4940647E1,6.7088747E0,6.151579E0,4.5545027E-1,3.5179873E0,2.070988E0,1.0574675E0,0E0,1.66359E-1,0E0,3.0770683E-1,1.929113E-1,1.1326666E0,2.0777988E-1,3.096126E-2,0E0,0E0,0E0,0E0,0E0,0E0,0E0,0E0,0E0,0E0,0E0,0E0],"parents":[2147483647,0,0,1,1,2,2,3,3,4,4,5,5,6,6,8,8,10,10,11,11,12,12,13,13,14,14],"right_children":[2,4,6,8,10,12,14,-1,16,-1,18,20,22,24,26,-1,-1,-1,-1,-1,-1,-1,-1,-1,-1,-1,-1],"split_conditions":[1.4E1,1E1,1E-45,3E0,5E0,4.39E-1,2.4E1,-0E0,2.2E1,-0E0,2E0,9E0,7E0,3E1,1.3E1,-2.572568E-3,-0E0,-0E0,7.482938E-3,-0E0,-1.9356024E-3,-0E0,4.6825227E-3,-6.465182E-3,-0E0,-5.3485984E-4,1.0222092E-4],"split_indices":[5,21,1,21,23,2,26,0,7,0,24,9,9,12,15,0,0,0,0,0,0,0,0,0,0,0,0],"split_type":[0,0,1,0,0,0,0,0,0,0,0,0,0,0,0,0,0,0,0,0,0,0,0,0,0,0,0],"sum_hessian":[8.1784515E1,3.4211098E1,4.757342E1,8.143367E0,2.6067732E1,1.29876375E1,3.458578E1,1.2273077E0,6.9160595E0,2.2327006E0,2.3835032E1,5.7254553E0,7.262182E0,3.0131605E1,4.4541774E0,5.6879873E0,1.2280722E0,1.2369049E0,2.2598125E1,1.2478492E0,4.4776063E0,1.7067287E0,5.5554533E0,2.838708E1,1.7445257E0,2.2424788E0,2.2116983E0],"tree_param":{"num_deleted":"0","num_feature":"38","num_nodes":"27","size_leaf_vector":"1"}},{"base_weights":[1.730883E-2,2.2958489E-1,-4.163962E-1,3.8808122E-1,-3.1969216E-1,-4.9971253E-1,-0E0,-0E0,5.429441E-1,-3.72576E-3,-0E0,-5.411591E-1,-0E0,-1.8839113E-3,1.4334999E-3,5.942981E-3,-0E0,-5.7512997E-3,-0E0],"categories":[],"categories_nodes":[],"categories_segments":[],"categories_sizes":[],"default_left":[0,0,0,0,0,0,0,0,0,0,0,0,0,0,0,0,0,0,0],"id":46,"left_children":[1,3,5,7,9,11,-1,13,15,-1,-1,17,-1,-1,-1,-1,-1,-1,-1],"loss_changes":[9.36987E0,7.5720634E0,1.3147192E0,3.9982615E0,4.922514E-1,5.942464E-1,0E0,9.3243253E-1,1.8440456E0,0E0,0E0,4.6602917E-1,0E0,0E0,0E0,0E0,0E0,0E0,0E0],"parents":[2147483647,0,0,1,1,2,2,3,3,4,4,5,5,7,7,8,8,11,11],"right_children":[2,4,6,8,10,12,-1,14,16,-1,-1,18,-1,-1,-1,-1,-1,-1,-1],"split_conditions":[2E0,2.6E1,1E0,1.2E1,2.8E1,1.8E1,-0E0,1.3E1,4E0,-3.72576E-3,-0E0,2.8E1,-0E0,-1.8839113E-3,1.4334999E-3,5.942981E-3,-0E0,-5.7512997E-3,-0E0],"split_indices":[36,5,19,21,8,21,0,12,17,0,0,12,0,0,0,0,0,0,0],"split_type":[0,0,0,0,0,0,0,0,0,0,0,0,0,0,0,0,0,0,0],"sum_hessian":[8.911785E1,6.551994E1,2.3597906E1,5.554095E1,9.9789915E0,1.914353E1,4.4543757E0,1.7612595E1,3.7928356E1,8.73071E0,1.2482816E0,1.7144686E1,1.9988434E0,7.4271097E0,1.0185486E1,3.552188E1,2.4064722E0,1.5647966E1,1.4967201E0],"tree_param":{"num_deleted":"0","num_feature":"38","num_nodes":"19","size_leaf_vector":"1"}},{"base_weights":[1.4064675E-2,-4.649272E-1,3.678025E-1,8.503798E-2,-5.755879E-1,6.4408493E-1,-0E0,-0E0,1.6785349E-3,-0E0,-6.4454977E-3,-0E0,7.243324E-1,1.8890373E-1,-1.4559717E-1,-0E0,-5.8081687E-6,7.409488E-3,-0E0,-2.2257052E-4,3.6270686E-3,-0E0,-3.0782085E-3],"categories":[0,1,2,3,4,5,6,7,8,9,10,11,12,13,14,15,16,17,18,19,20,21,22,23,24,25,26,29],"categories_nodes":[4],"categories_segments":[0],"categories_sizes":[28],"default_left":[0,0,0,0,1,0,0,0,0,0,0,0,0,0,0,0,0,0,0,0,0,0,0],"id":47,"left_children":[1,3,5,7,9,11,13,-1,-1,15,-1,-1,17,19,21,-1,-1,-1,-1,-1,-1,-1,-1],"loss_changes":[1.857036E1,4.1058645E0,7.3316174E0,2.0852062E-1,1.3029022E0,2.3694763E0,1.1442969E0,0E0,0E0,3.7761959E-6,0E0,0E0,6.653595E-2,1.3286296E0,9.307571E-1,0E0,0E0,0E0,0E0,0E0,0E0,0E0,0E0],"parents":[2147483647,0,0,1,1,2,2,3,3,4,4,5,5,6,6,9,9,12,12,13,13,14,14],"right_children":[2,4,6,8,10,12,14,-1,-1,16,-1,-1,18,20,22,-1,-1,-1,-1,-1,-1,-1,-1],"split_conditions":[2.2E1,3.17E-1,5.85E-1,1.7E1,1E-45,6E0,2E0,-0E0,1.6785349E-3,1E0,-6.4454977E-3,-0E0,2.9E1,5E0,6.22E-1,-0E0,-5.8081687E-6,7.409488E-3,-0E0,-2.2257052E-4,3.6270686E-3,-0E0,-3.0782085E-3],"split_indices":[14,20,20,11,0,25,13,0,0,36,0,0,28,27,20,0,0,0,0,0,0,0,0],"split_type":[0,0,0,0,1,0,0,0,0,0,0,0,0,0,0,0,0,0,0,0,0,0,0],"sum_hessian":[9.427079E1,3.6548946E1,5.7721844E1,3.4128861E0,3.313606E1,3.0969864E1,2.675198E1,1.2313108E0,2.1815753E0,5.2359285E0,2.790013E1,3.6821113E0,2.7287752E1,7.6454177E0,1.9106564E1,2.2421668E0,2.9937618E0,2.5835112E1,1.4526403E0,1.4844913E0,6.1609263E0,1.1374557E1,7.7320065E0],"tree_param":{"num_deleted":"0","num_feature":"38","num_nodes":"23","size_leaf_vector":"1"}},{"base_weights":[4.6125118E-2,4.5150638E-1,-3.337699E-1,-5.791944E-2,6.4409775E-1,1.2625474E-1,-4.6345896E-1,7.274732E-4,-2.2630607E-1,7.6684644E-3,-0E0,-4.1958265E-5,2.9624745E-1,-0E0,-5.386293E-1,-3.2653569E-3,-0E0,1.3392551E-3,-1.2350992E-3,3.1158004E-3,-0E0,-3.540913E-4,5.9663686E-5,-9.541882E-4,-7.427266E-3],"categories":[2,5,7,9,14,17],"categories_nodes":[14],"categories_segments":[0],"categories_sizes":[6],"default_left":[0,0,0,0,0,0,0,0,0,0,0,0,0,0,1,0,0,0,0,0,0,0,0,0,0],"id":48,"left_children":[1,3,5,7,9,11,13,-1,15,-1,17,-1,19,21,23,-1,-1,-1,-1,-1,-1,-1,-1,-1,-1],"loss_changes":[1.651052E1,6.7051916E0,4.2912E0,8.6654806E-1,2.935793E0,9.184249E-1,1.3905277E0,0E0,7.1387E-1,0E0,3.9963308E-1,0E0,3.4307241E-3,1.6887762E-2,1.267827E0,0E0,0E0,0E0,0E0,0E0,0E0,0E0,0E0,0E0,0E0],"parents":[2147483647,0,0,1,1,2,2,3,3,4,4,5,5,6,6,8,8,10,10,12,12,13,13,14,14],"right_children":[2,4,6,8,10,12,14,-1,16,-1,18,-1,20,22,24,-1,-1,-1,-1,-1,-1,-1,-1,-1,-1],"split_conditions":[2E1,-1E0,5E0,2.56E-1,4E0,7E0,9E0,7.274732E-4,2.2E1,7.6684644E-3,1.9E1,-4.1958265E-5,1.1E1,1.2E1,1E-45,-3.2653569E-3,-0E0,1.3392551E-3,-1.2350992E-3,3.1158004E-3,-0E0,-3.540913E-4,5.9663686E-5,-9.541882E-4,-7.427266E-3],"split_indices":[33,16,9,20,16,22,7,0,4,0,22,0,21,21,1,0,0,0,0,0,0,0,0,0,0],"split_type":[0,0,0,0,0,0,0,0,0,0,0,0,0,0,1,0,0,0,0,0,0,0,0,0,0],"sum_hessian":[8.945642E1,4.5075645E1,4.4380775E1,1.1090172E1,3.3985474E1,6.41644E0,3.7964336E1,2.1791396E0,8.911032E0,2.6553535E1,7.4319386E0,1.4987274E0,4.917712E0,7.1932163E0,3.077112E1,6.713891E0,2.1971412E0,5.257446E0,2.1744928E0,3.6937919E0,1.2239206E0,4.9733577E0,2.2198586E0,1.6586138E1,1.4184983E1],"tree_param":{"num_deleted":"0","num_feature":"38","num_nodes":"25","size_leaf_vector":"1"}},{"base_weights":[7.6537475E-2,4.8366198E-1,-2.9084715E-1,6.455736E-1,-0E0,-4.292323E-1,1.342278E-1,7.050538E-1,-0E0,7.936174E-2,-2.1946935E-3,-4.8504683E-1,-0E0,2.0854786E-1,-0E0,7.3974356E-3,-0E0,-0E0,1.3136984E-3,-0E0,-4.9583884E-3,-0E0,1.5678466E-4,-0E0,2.3439953E-3],"categories":[],"categories_nodes":[],"categories_segments":[],"categories_sizes":[],"default_left":[0,0,0,0,0,0,0,0,0,0,0,0,0,0,0,0,0,0,0,0,0,0,0,0,0],"id":49,"left_children":[1,3,5,7,9,11,13,15,-1,17,-1,19,21,23,-1,-1,-1,-1,-1,-1,-1,-1,-1,-1,-1],"loss_changes":[1.5726177E1,5.111305E0,4.144685E0,1.9550209E0,7.0749146E-1,1.362937E0,3.210926E-1,5.554638E-1,0E0,1.2556529E-1,0E0,7.020092E-2,2.6862482E-3,6.390202E-2,0E0,0E0,0E0,0E0,0E0,0E0,0E0,0E0,0E0,0E0,0E0],"parents":[2147483647,0,0,1,1,2,2,3,3,4,4,5,5,6,6,7,7,9,9,11,11,12,12,13,13],"right_children":[2,4,6,8,10,12,14,16,-1,18,-1,20,22,24,-1,-1,-1,-1,-1,-1,-1,-1,-1,-1,-1],"split_conditions":[2E1,2.5E1,2.9E1,4E0,1.7E1,2.9E1,6.34E-1,5.37E-1,-0E0,1.9E1,-2.1946935E-3,2E0,5E0,5E0,-0E0,7.3974356E-3,-0E0,-0E0,1.3136984E-3,-0E0,-4.9583884E-3,-0E0,1.5678466E-4,-0E0,2.3439953E-3],"split_indices":[33,3,14,17,29,11,20,20,0,21,0,3,21,24,0,0,0,0,0,0,0,0,0,0,0],"split_type":[0,0,0,0,0,0,0,0,0,0,0,0,0,0,0,0,0,0,0,0,0,0,0,0,0],"sum_hessian":[8.6651344E1,4.2453854E1,4.4197487E1,3.2496063E1,9.957789E0,3.683163E1,7.365855E0,2.9852087E1,2.6439776E0,5.2248597E0,4.7329297E0,3.2857357E1,3.9742744E0,5.6310787E0,1.7347764E0,2.7381979E1,2.4701073E0,1.2497263E0,3.9751334E0,1.4822537E0,3.1375105E1,1.2463169E0,2.7279575E0,1.7195349E0,3.9115436E0],"tree_param":{"num_deleted":"0","num_feature":"38","num_nodes":"25","size_leaf_vector":"1"}},{"base_weights":[-0E0,3.1489462E-1,-4.7496942E-1,-4.992359E-2,4.7729582E-1,-7.001204E-1,-0E0,2.1203418E-1,-3.5924906E-1,5.150848E-1,-0E0,-8.156432E-3,-0E0,2.9326117E-1,-2.3634303E-3,-0E0,2.9764848E-3,-4.2249747E-3,-0E0,5.515306E-3,-0E0,3.1059538E-3,-0E0],"categories":[0,1,2,3,4,5,6,7],"categories_nodes":[13],"categories_segments":[0],"categories_sizes":[8],"default_left":[0,0,0,0,0,0,0,0,0,0,0,0,0,1,0,0,0,0,0,0,0,0,0],"id":50,"left_children":[1,3,5,7,9,11,13,15,17,19,-1,-1,-1,21,-1,-1,-1,-1,-1,-1,-1,-1,-1],"loss_changes":[1.5416957E1,4.6019983E0,5.1810207E0,2.7095485E0,1.2693558E0,1.7512054E0,2.0310616E0,4.213106E-1,6.027627E-1,7.8244114E-1,0E0,0E0,0E0,3.4772396E-2,0E0,0E0,0E0,0E0,0E0,0E0,0E0,0E0,0E0],"parents":[2147483647,0,0,1,1,2,2,3,3,4,4,5,5,6,6,7,7,8,8,9,9,13,13],"right_children":[2,4,6,8,10,12,14,16,18,20,-1,-1,-1,22,-1,-1,-1,-1,-1,-1,-1,-1,-1],"split_conditions":[2.6E1,1.9E1,2.5E1,-1E0,2.9E1,1.2E1,2.4E1,1.4E1,2.4E1,8E0,-0E0,-8.156432E-3,-0E0,1E-45,-2.3634303E-3,-0E0,2.9764848E-3,-4.2249747E-3,-0E0,5.515306E-3,-0E0,3.1059538E-3,-0E0],"split_indices":[32,14,14,34,4,23,33,11,32,18,0,0,0,0,0,0,0,0,0,0,0,0,0],"split_type":[0,0,0,0,0,0,0,0,0,0,0,0,0,1,0,0,0,0,0,0,0,0,0],"sum_hessian":[8.553842E1,5.1750164E1,3.378826E1,1.389669E1,3.7853474E1,2.1694618E1,1.2093642E1,5.4200587E0,8.476632E0,3.6128338E1,1.7251351E0,1.645843E1,5.236189E0,6.3787475E0,5.7148943E0,1.9528959E0,3.467163E0,7.23408E0,1.2425518E0,3.303562E1,3.0927174E0,5.157336E0,1.2214113E0],"tree_param":{"num_deleted":"0","num_feature":"38","num_nodes":"23","size_leaf_vector":"1"}},{"base_weights":[-0E0,-3.3403018E-1,5.931529E-1,-6.806533E-1,-1.1831409E-2,8.285745E-3,-1.04322486E-1,-0E0,-7.647337E-3,-2.8477964E-1,1.6724265E-1,-0E0,-1.4330149E-3,1.51612285E-5,-0E0,-0E0,-3.4975517E-3,2.514192E-3,-0E0],"categories":[],"categories_nodes":[],"categories_segments":[],"categories_sizes":[],"default_left":[0,0,0,0,0,0,0,0,0,0,0,0,0,0,0,0,0,0,0],"id":51,"left_children":[1,3,5,7,9,-1,11,13,-1,15,17,-1,-1,-1,-1,-1,-1,-1,-1],"loss_changes":[2.0007904E1,5.6853495E0,8.167657E0,1.6085005E0,2.798326E0,0E0,9.903799E-2,2.2287268E-5,0E0,8.8314605E-1,7.718912E-1,0E0,0E0,0E0,0E0,0E0,0E0,0E0,0E0],"parents":[2147483647,0,0,1,1,2,2,3,3,4,4,6,6,7,7,9,9,10,10],"right_children":[2,4,6,8,10,-1,12,14,-1,16,18,-1,-1,-1,-1,-1,-1,-1,-1],"split_conditions":[2.1E1,2.1E1,2.1E1,6E0,1.1E1,8.285745E-3,2.3E1,1.9E1,-7.647337E-3,3E0,2E1,-0E0,-1.4330149E-3,1.51612285E-5,-0E0,-0E0,-3.4975517E-3,2.514192E-3,-0E0],"split_indices":[23,14,3,6,23,0,5,26,0,5,10,0,0,0,0,0,0,0,0],"split_type":[0,0,0,0,0,0,0,0,0,0,0,0,0,0,0,0,0,0,0],"sum_hessian":[8.410281E1,5.5699142E1,2.8403671E1,1.9447435E1,3.625171E1,2.222737E1,6.176301E0,2.9948847E0,1.645255E1,1.6868536E1,1.9383171E1,1.9344245E0,4.2418766E0,1.4958998E0,1.4989849E0,1.2295601E0,1.5638977E1,1.6216328E1,3.166844E0],"tree_param":{"num_deleted":"0","num_feature":"38","num_nodes":"19","size_leaf_vector":"1"}},{"base_weights":[-0E0,-3.094628E-1,4.3452564E-1,-4.3513945E-1,2.2364827E-2,-2.2832935E-3,6.1901414E-1,-4.84861E-1,-0E0,-7.6838896E-2,2.6141482E-3,-1.3004652E-1,1.194579E-4,-0E0,6.9987446E-1,-0E0,-5.5552367E-3,-0E0,-1.508031E-3,-0E0,-2.3413734E-3,8.9472864E-4,-0E0,-0E0,7.5795874E-3],"categories":[],"categories_nodes":[],"categories_segments":[],"categories_sizes":[],"default_left":[0,0,0,0,0,0,0,0,0,0,0,0,0,0,0,0,0,0,0,0,0,0,0,0,0],"id":52,"left_children":[1,3,5,7,9,11,13,15,-1,17,-1,19,-1,21,23,-1,-1,-1,-1,-1,-1,-1,-1,-1,-1],"loss_changes":[1.3966009E1,3.2821097E0,4.8763094E0,1.4053421E0,9.864221E-1,2.8226528E-1,8.621464E-1,1.4331322E0,0E0,2.005243E-1,0E0,5.613767E-1,0E0,9.299388E-2,9.634237E-1,0E0,0E0,0E0,0E0,0E0,0E0,0E0,0E0,0E0,0E0],"parents":[2147483647,0,0,1,1,2,2,3,3,4,4,5,5,6,6,7,7,9,9,11,11,13,13,14,14],"right_children":[2,4,6,8,10,12,14,16,-1,18,-1,20,-1,22,24,-1,-1,-1,-1,-1,-1,-1,-1,-1,-1],"split_conditions":[1.8E1,3E0,1.7E1,2.8E1,9E0,2.8E1,9E0,8E0,-0E0,3E0,2.6141482E-3,2E1,1.194579E-4,2E0,4E0,-0E0,-5.5552367E-3,-0E0,-1.508031E-3,-0E0,-2.3413734E-3,8.9472864E-4,-0E0,-0E0,7.5795874E-3],"split_indices":[23,18,15,4,23,21,29,12,0,9,0,23,0,18,6,0,0,0,0,0,0,0,0,0,0],"split_type":[0,0,0,0,0,0,0,0,0,0,0,0,0,0,0,0,0,0,0,0,0,0,0,0,0],"sum_hessian":[8.565308E1,4.8792564E1,3.6860523E1,3.7909073E1,1.08834915E1,1.0131097E1,2.6729425E1,3.4915054E1,2.9940188E0,5.7111855E0,5.172306E0,8.412098E0,1.718999E0,5.8448067E0,2.0884619E1,5.6270065E0,2.9288046E1,1.4820133E0,4.2291718E0,1.246947E0,7.165151E0,3.4164019E0,2.4284048E0,2.6098826E0,1.8274736E1],"tree_param":{"num_deleted":"0","num_feature":"38","num_nodes":"25","size_leaf_vector":"1"}},{"base_weights":[-4.068689E-3,-4.0315148E-1,4.2420596E-1,-0E0,-5.145418E-1,-1.6359745E-1,6.874525E-1,-3.5799906E-4,1.4166158E-1,-5.760933E-1,-0E0,4.545953E-3,-3.092981E-1,7.543888E-1,-0E0,-0E0,1.720989E-3,-6.618626E-3,-0E0,-0E0,5.5197626E-4,-0E0,3.286831E-4,-0E0,-4.1210046E-3,7.7931527E-3,-0E0],"categories":[],"categories_nodes":[],"categories_segments":[],"categories_sizes":[],"default_left":[0,0,0,0,0,0,0,0,0,0,0,0,0,0,0,0,0,0,0,0,0,0,0,0,0,0,0],"id":53,"left_children":[1,3,5,7,9,11,13,-1,15,17,19,21,23,25,-1,-1,-1,-1,-1,-1,-1,-1,-1,-1,-1,-1,-1],"loss_changes":[1.8647495E1,3.5154028E0,9.763424E0,3.0966696E-1,2.1620903E0,1.1074017E0,1.7895622E0,0E0,6.9759876E-2,9.7540283E-1,3.1825975E-2,9.973237E-3,9.781958E-1,6.133709E-1,0E0,0E0,0E0,0E0,0E0,0E0,0E0,0E0,0E0,0E0,0E0,0E0,0E0],"parents":[2147483647,0,0,1,1,2,2,3,3,4,4,5,5,6,6,8,8,9,9,10,10,11,11,12,12,13,13],"right_children":[2,4,6,8,10,12,14,-1,16,18,20,22,24,26,-1,-1,-1,-1,-1,-1,-1,-1,-1,-1,-1,-1,-1],"split_conditions":[2.4E1,3.66E-1,1.1E1,1.4E1,4E0,5E0,5.98E-1,-3.5799906E-4,1.4E1,2.2E1,1.9E1,1.2E1,2E0,3E1,-0E0,-0E0,1.720989E-3,-6.618626E-3,-0E0,-0E0,5.5197626E-4,-0E0,3.286831E-4,-0E0,-4.1210046E-3,7.7931527E-3,-0E0],"split_indices":[14,20,23,15,35,5,20,0,6,14,5,25,6,25,0,0,0,0,0,0,0,0,0,0,0,0,0],"split_type":[0,0,0,0,0,0,0,0,0,0,0,0,0,0,0,0,0,0,0,0,0,0,0,0,0,0,0],"sum_hessian":[9.2944084E1,5.0778057E1,4.2166023E1,9.4936E0,4.128446E1,1.165288E1,3.0513145E1,2.9765031E0,6.517097E0,3.778982E1,3.4946353E0,2.7252407E0,8.927639E0,2.7092484E1,3.4206603E0,2.390057E0,4.12704E0,2.8869314E1,8.920507E0,1.2488543E0,2.245781E0,1.4845561E0,1.2406846E0,1.7194892E0,7.20815E0,2.5880865E1,1.21162E0],"tree_param":{"num_deleted":"0","num_feature":"38","num_nodes":"27","size_leaf_vector":"1"}},{"base_weights":[-4.847142E-2,-5.78979E-1,1.6618173E-1,-6.435487E-1,-0E0,6.430839E-1,-4.2436033E-2,-7.179131E-1,-0E0,6.8529123E-3,-0E0,-1.9405185E-1,2.3349823E-1,-0E0,-7.486663E-3,-3.7216507E-3,-0E0,3.4140695E-3,-0E0],"categories":[],"categories_nodes":[],"categories_segments":[],"categories_sizes":[],"default_left":[0,0,0,0,0,0,0,0,0,0,0,0,0,0,0,0,0,0,0],"id":54,"left_children":[1,3,5,7,-1,9,11,13,-1,-1,-1,15,17,-1,-1,-1,-1,-1,-1],"loss_changes":[1.2318999E1,1.9838619E0,8.450127E0,1.9190369E0,0E0,4.040327E-1,2.5474968E0,2.878933E-1,0E0,0E0,0E0,1.1233836E0,8.097323E-1,0E0,0E0,0E0,0E0,0E0,0E0],"parents":[2147483647,0,0,1,1,2,2,3,3,5,5,6,6,7,7,11,11,12,12],"right_children":[2,4,6,8,-1,10,12,14,-1,-1,-1,16,18,-1,-1,-1,-1,-1,-1],"split_conditions":[1.9E1,2.9E1,4.39E-1,2.7E1,-0E0,2.9E1,6.22E-1,4E0,-0E0,6.8529123E-3,-0E0,1.2E1,2.4E1,-0E0,-7.486663E-3,-3.7216507E-3,-0E0,3.4140695E-3,-0E0],"split_indices":[14,30,20,7,0,21,2,25,0,0,0,22,33,0,0,0,0,0,0],"split_type":[0,0,0,0,0,0,0,0,0,0,0,0,0,0,0,0,0,0,0],"sum_hessian":[8.580153E1,2.3391056E1,6.2410473E1,2.2159922E1,1.2311344E0,1.6713318E1,4.5697155E1,1.9919462E1,2.2404592E0,1.4599308E1,2.1140103E0,3.5740486E1,9.956672E0,1.7490629E0,1.81704E1,1.1856856E1,2.3883629E1,7.239942E0,2.7167292E0],"tree_param":{"num_deleted":"0","num_feature":"38","num_nodes":"19","size_leaf_vector":"1"}},{"base_weights":[-3.6832746E-2,-5.067666E-1,3.297614E-1,-5.892976E-1,-0E0,-0E0,6.5186936E-3,-6.4186435E-3,-0E0,8.3011255E-4,-4.8326867E-4,2.2503155E-1,-2.7396333E-1,-0E0,3.8266405E-3,-3.3634668E-3,-0E0],"categories":[0,1,2,3,4,5,6,7,8,21,0,1,2,3,4,5,6,7,8,9,10,11,12,13,14,15,16],"categories_nodes":[5,11],"categories_segments":[0,10],"categories_sizes":[10,17],"default_left":[0,0,0,0,0,1,0,0,0,0,0,1,0,0,0,0,0],"id":55,"left_children":[1,3,5,7,9,11,-1,-1,-1,-1,-1,13,15,-1,-1,-1,-1],"loss_changes":[1.7571398E1,2.1918764E0,4.9477654E0,2.095912E0,1.0440439E-1,2.7208128E0,0E0,0E0,0E0,0E0,0E0,1.4773209E0,3.1447065E-1,0E0,0E0,0E0,0E0],"parents":[2147483647,0,0,1,1,2,2,3,3,4,4,5,5,11,11,12,12],"right_children":[2,4,6,8,10,12,-1,-1,-1,-1,-1,14,16,-1,-1,-1,-1],"split_conditions":[2.2E1,2E1,1.9E1,2.9E1,2.4E1,1E-45,6.5186936E-3,-6.4186435E-3,-0E0,8.3011255E-4,-4.8326867E-4,1E-45,2.1E1,-0E0,3.8266405E-3,-3.3634668E-3,-0E0],"split_indices":[14,15,30,30,32,0,0,0,0,0,0,1,29,0,0,0,0],"split_type":[0,0,0,0,0,1,0,0,0,0,0,1,0,0,0,0,0],"sum_hessian":[8.378704E1,3.7735046E1,4.6052E1,3.2081337E1,5.65371E0,2.8725033E1,1.7326963E1,3.0840954E1,1.2403824E0,3.4122567E0,2.241453E0,1.9079983E1,9.64505E0,7.7571907E0,1.1322792E1,6.419113E0,3.2259364E0],"tree_param":{"num_deleted":"0","num_feature":"38","num_nodes":"17","size_leaf_vector":"1"}},{"base_weights":[-0E0,3.6477804E-1,-2.3858792E-1,6.205546E-1,-7.5462684E-3,-5.7382447E-1,-0E0,-0E0,6.756959E-3,1.2847266E-1,-3.2980915E-3,-0E0,-6.584218E-1,-1.8206975E-1,1.10803634E-1,3.3585585E-4,-0E0,-0E0,1.986005E-3,-0E0,-6.8219006E-3,-3.0295004E-3,-0E0,2.4953722E-3,-1.5899638E-4],"categories":[],"categories_nodes":[],"categories_segments":[],"categories_sizes":[],"default_left":[0,0,0,0,0,0,0,0,0,0,0,0,0,0,0,0,0,0,0,0,0,0,0,0,0],"id":56,"left_children":[1,3,5,7,9,11,13,15,-1,17,-1,-1,19,21,23,-1,-1,-1,-1,-1,-1,-1,-1,-1,-1],"loss_changes":[9.340222E0,5.4576817E0,3.892365E0,6.601591E-1,1.7516414E0,1.6869245E0,1.2368896E0,1.1432918E-2,0E0,3.565524E-1,0E0,0E0,8.692932E-2,1.0278734E0,9.981042E-1,0E0,0E0,0E0,0E0,0E0,0E0,0E0,0E0,0E0,0E0],"parents":[2147483647,0,0,1,1,2,2,3,3,4,4,5,5,6,6,7,7,9,9,12,12,13,13,14,14],"right_children":[2,4,6,8,10,12,14,16,-1,18,-1,-1,20,22,24,-1,-1,-1,-1,-1,-1,-1,-1,-1,-1],"split_conditions":[2.2E1,2E1,7E0,9E0,2.1E1,6E0,2E1,1.3E1,6.756959E-3,2.2E1,-3.2980915E-3,-0E0,-8E0,2.5E1,3E0,3.3585585E-4,-0E0,-0E0,1.986005E-3,-0E0,-6.8219006E-3,-3.0295004E-3,-0E0,2.4953722E-3,-1.5899638E-4],"split_indices":[32,7,22,26,10,10,15,7,0,7,0,0,17,24,17,0,0,0,0,0,0,0,0,0,0],"split_type":[0,0,0,0,0,0,0,0,0,0,0,0,0,0,0,0,0,0,0,0,0,0,0,0,0],"sum_hessian":[8.878665E1,3.5832165E1,5.2954483E1,2.1184013E1,1.4648153E1,1.4193275E1,3.8761208E1,3.1542432E0,1.802977E1,9.403899E0,5.244254E0,1.4934915E0,1.2699784E1,1.8613546E1,2.0147663E1,1.9356403E0,1.218603E0,1.1973784E0,8.206521E0,1.2441812E0,1.1455603E1,1.2684209E1,5.9293365E0,1.3357364E1,6.7902994E0],"tree_param":{"num_deleted":"0","num_feature":"38","num_nodes":"25","size_leaf_vector":"1"}},{"base_weights":[-0E0,-3.8852736E-1,4.4524708E-1,-0E0,-7.290343E-1,-1.0208632E-1,6.4424247E-1,-1.3742968E-1,1.8584053E-1,-0E0,-7.6209935E-3,-1.8191767E-1,-0E0,-0E0,6.9633746E-1,-0E0,-2.4920956E-3,2.5047457E-3,-0E0,-0E0,-2.2654019E-3,7.467698E-3,-0E0],"categories":[],"categories_nodes":[],"categories_segments":[],"categories_sizes":[],"default_left":[0,0,0,0,0,0,0,0,0,0,0,0,0,0,0,0,0,0,0,0,0,0,0],"id":57,"left_children":[1,3,5,7,9,11,13,15,17,-1,-1,19,-1,-1,21,-1,-1,-1,-1,-1,-1,-1,-1],"loss_changes":[1.8287079E1,8.956455E0,6.9228296E0,1.1271292E0,7.623539E-1,3.5333246E-1,1.9183655E0,5.053871E-1,4.6698803E-1,0E0,0E0,2.0505905E-1,0E0,0E0,2.0799103E0,0E0,0E0,0E0,0E0,0E0,0E0,0E0,0E0],"parents":[2147483647,0,0,1,1,2,2,3,3,4,4,5,5,6,6,7,7,8,8,11,11,14,14],"right_children":[2,4,6,8,10,12,14,16,18,-1,-1,20,-1,-1,22,-1,-1,-1,-1,-1,-1,-1,-1],"split_conditions":[5.37E-1,5E-1,7E0,3.66E-1,-2E0,7.8E-1,6E0,1.7E1,2E0,-0E0,-7.6209935E-3,-1E0,-0E0,-0E0,2.9E1,-0E0,-2.4920956E-3,2.5047457E-3,-0E0,-0E0,-2.2654019E-3,7.467698E-3,-0E0],"split_indices":[2,20,22,2,34,2,26,28,18,0,0,18,0,0,28,0,0,0,0,0,0,0,0],"split_type":[0,0,0,0,0,0,0,0,0,0,0,0,0,0,0,0,0,0,0,0,0,0,0],"sum_hessian":[8.950129E1,4.9047504E1,4.0453785E1,2.413657E1,2.4910936E1,9.171254E0,3.1282532E1,9.236037E0,1.4900533E1,1.4982209E0,2.3412716E1,7.946985E0,1.2242699E0,1.7302935E0,2.9552237E1,3.9959805E0,5.2400565E0,1.1960254E1,2.9402788E0,1.7389272E0,6.2080574E0,2.8354975E1,1.1972626E0],"tree_param":{"num_deleted":"0","num_feature":"38","num_nodes":"23","size_leaf_vector":"1"}},{"base_weights":[-1.5355193E-2,-6.165774E-1,2.764671E-1,-7.3394513E-1,3.1549245E-4,5.946619E-1,-0E0,-0E0,-8.036488E-3,6.36734E-1,-0E0,-9.528553E-2,2.0473346E-1,-0E0,6.826553E-3,7.4299704E-4,-1.9154602E-3,-0E0,3.5096523E-3],"categories":[],"categories_nodes":[],"categories_segments":[],"categories_sizes":[],"default_left":[0,0,0,0,0,0,0,0,0,0,0,0,0,0,0,0,0,0,0],"id":58,"left_children":[1,3,5,7,-1,9,11,-1,-1,13,-1,15,17,-1,-1,-1,-1,-1,-1],"loss_changes":[2.0202839E1,4.5260096E0,6.4994144E0,1.8774319E0,0E0,1.106513E0,1.0624276E0,0E0,0E0,8.421011E-1,0E0,9.7365206E-1,1.203973E0,0E0,0E0,0E0,0E0,0E0,0E0],"parents":[2147483647,0,0,1,1,2,2,3,3,5,5,6,6,9,9,11,11,12,12],"right_children":[2,4,6,8,-1,10,12,-1,-1,14,-1,16,18,-1,-1,-1,-1,-1,-1],"split_conditions":[1.9E1,2.7E1,1.9E1,5E0,3.1549245E-4,8E0,2.3E1,-0E0,-8.036488E-3,1.6E1,-0E0,1.7E1,2.1E1,-0E0,6.826553E-3,7.4299704E-4,-1.9154602E-3,-0E0,3.5096523E-3],"split_indices":[14,23,33,25,0,18,24,0,0,23,0,15,14,0,0,0,0,0,0],"split_type":[0,0,0,0,0,0,0,0,0,0,0,0,0,0,0,0,0,0,0],"sum_hessian":[9.510471E1,3.0335203E1,6.476951E1,2.7377523E1,2.95768E0,2.5951565E1,3.8817947E1,2.9970028E0,2.4380522E1,2.4316776E1,1.634789E0,2.993067E1,8.887276E0,2.420569E0,2.1896208E1,3.991862E0,2.5938808E1,1.4982773E0,7.3889985E0],"tree_param":{"num_deleted":"0","num_feature":"38","num_nodes":"19","size_leaf_vector":"1"}},{"base_weights":[2.1169264E-2,4.480364E-1,-3.9179406E-1,-2.5094917E-2,6.2616277E-1,7.719083E-2,-5.071585E-1,-1.652576E-1,2.607341E-2,-0E0,7.428718E-1,1.5001879E-3,-0E0,-5.390349E-1,-0E0,-0E0,-2.5627792E-3,1.227874E-3,-0E0,-1.3715809E-3,4.2230825E-4,7.8005036E-3,-0E0,-5.7582674E-3,-0E0],"categories":[],"categories_nodes":[],"categories_segments":[],"categories_sizes":[],"default_left":[0,0,0,0,0,0,0,0,0,0,0,0,0,0,0,0,0,0,0,0,0,0,0,0,0],"id":59,"left_children":[1,3,5,7,9,11,13,15,17,19,21,-1,-1,23,-1,-1,-1,-1,-1,-1,-1,-1,-1,-1,-1],"loss_changes":[1.8997612E1,5.9553146E0,4.010338E0,4.55853E-1,4.037409E0,1.7699827E-1,9.009476E-1,5.66442E-1,1.4223664E-1,2.371854E-1,1.006216E0,0E0,0E0,8.304777E-1,0E0,0E0,0E0,0E0,0E0,0E0,0E0,0E0,0E0,0E0,0E0],"parents":[2147483647,0,0,1,1,2,2,3,3,4,4,5,5,6,6,7,7,8,8,9,9,10,10,13,13],"right_children":[2,4,6,8,10,12,14,16,18,20,22,-1,-1,24,-1,-1,-1,-1,-1,-1,-1,-1,-1,-1,-1],"split_conditions":[1.6E1,9E0,3.17E-1,6.34E-1,6E0,2.2E1,2.1E1,5E0,1E1,1E1,2.4E1,1.5001879E-3,-0E0,2.5E1,-0E0,-0E0,-2.5627792E-3,1.227874E-3,-0E0,-1.3715809E-3,4.2230825E-4,7.8005036E-3,-0E0,-5.7582674E-3,-0E0],"split_indices":[5,21,20,2,22,28,15,8,23,5,7,0,0,26,0,0,0,0,0,0,0,0,0,0,0],"split_type":[0,0,0,0,0,0,0,0,0,0,0,0,0,0,0,0,0,0,0,0,0,0,0,0,0],"sum_hessian":[9.076567E1,4.6670483E1,4.409519E1,1.1620747E1,3.5049736E1,5.8185067E0,3.827668E1,8.671266E0,2.9494808E0,5.2060103E0,2.9843727E1,3.3760538E0,2.442453E0,3.6043053E1,2.233627E0,1.231449E0,7.4398165E0,1.7369126E0,1.2125683E0,3.465599E0,1.7404112E0,2.7957352E1,1.886375E0,3.307458E1,2.9684744E0],"tree_param":{"num_deleted":"0","num_feature":"38","num_nodes":"25","size_leaf_vector":"1"}},{"base_weights":[-0E0,-3.849438E-1,4.329411E-1,-0E0,-5.7597953E-1,6.264529E-3,-1.707285E-2,-2.0722261E-1,1.8140519E-1,-0E0,-6.321238E-1,-2.5081092E-1,1.3830589E-1,-0E0,-2.7062811E-3,-1.1783376E-4,3.382135E-3,-6.8697385E-3,-0E0,-3.2776457E-3,-0E0,-0E0,2.1513728E-3],"categories":[],"categories_nodes":[],"categories_segments":[],"categories_sizes":[],"default_left":[0,0,0,0,0,0,0,0,0,0,0,0,0,0,0,0,0,0,0,0,0,0,0],"id":60,"left_children":[1,3,5,7,9,-1,11,13,15,-1,17,19,21,-1,-1,-1,-1,-1,-1,-1,-1,-1,-1],"loss_changes":[1.754966E1,4.388809E0,5.551857E0,1.2903807E0,1.2207918E0,0E0,1.2189025E0,2.9594678E-1,1.2731438E0,0E0,8.98077E-1,4.9382567E-1,2.6524115E-1,0E0,0E0,0E0,0E0,0E0,0E0,0E0,0E0,0E0,0E0],"parents":[2147483647,0,0,1,1,2,2,3,3,4,4,6,6,7,7,8,8,10,10,11,11,12,12],"right_children":[2,4,6,8,10,-1,12,14,16,-1,18,20,22,-1,-1,-1,-1,-1,-1,-1,-1,-1,-1],"split_conditions":[2.4E1,4.88E-1,6.1E-1,1.8E1,7E0,6.264529E-3,1E0,-2E0,8E0,-0E0,2.8E1,3.1E1,4E0,-0E0,-2.7062811E-3,-1.1783376E-4,3.382135E-3,-6.8697385E-3,-0E0,-3.2776457E-3,-0E0,-0E0,2.1513728E-3],"split_indices":[14,20,20,14,12,0,19,35,25,0,6,14,30,0,0,0,0,0,0,0,0,0,0],"split_type":[0,0,0,0,0,0,0,0,0,0,0,0,0,0,0,0,0,0,0,0,0,0,0],"sum_hessian":[8.911822E1,4.8567078E1,4.055114E1,1.8182114E1,3.0384962E1,2.9216824E1,1.1334314E1,6.9851265E0,1.1196988E1,3.4945495E0,2.6890411E1,7.654688E0,3.6796267E0,2.241107E0,4.7440195E0,2.6999824E0,8.497005E0,2.341364E1,3.4767737E0,5.6805525E0,1.9741354E0,1.239228E0,2.4403987E0],"tree_param":{"num_deleted":"0","num_feature":"38","num_nodes":"23","size_leaf_vector":"1"}},{"base_weights":[-2.0728575E-2,-5.813015E-1,2.9234573E-1,-7.1621137E-3,-0E0,-1.3374944E-1,4.4610465E-1,-1.1629048E-1,-0E0,5.0837493E-6,-2.6430404E-1,-0E0,5.471952E-1,-0E0,-2.0783667E-3,-0E0,3.055225E-4,-0E0,-3.0442744E-3,-1.0051199E-3,1.7863609E-3,-0E0,5.819904E-3],"categories":[],"categories_nodes":[],"categories_segments":[],"categories_sizes":[],"default_left":[0,0,0,0,0,0,0,0,0,0,0,0,0,0,0,0,0,0,0,0,0,0,0],"id":61,